FANN_FLO_2.1
num_layers=3
learning_rate=0.700000
connection_rate=1.000000
network_type=0
learning_momentum=0.000000
training_algorithm=2
train_error_function=1
train_stop_function=0
cascade_output_change_fraction=0.010000
quickprop_decay=-0.000100
quickprop_mu=1.750000
rprop_increase_factor=1.200000
rprop_decrease_factor=0.500000
rprop_delta_min=0.000000
rprop_delta_max=50.000000
rprop_delta_zero=0.100000
cascade_output_stagnation_epochs=12
cascade_candidate_change_fraction=0.010000
cascade_candidate_stagnation_epochs=12
cascade_max_out_epochs=150
cascade_min_out_epochs=50
cascade_max_cand_epochs=150
cascade_min_cand_epochs=50
cascade_num_candidate_groups=2
bit_fail_limit=3.49999999999999977796e-01
cascade_candidate_limit=1.00000000000000000000e+03
cascade_weight_multiplier=4.00000000000000022204e-01
cascade_activation_functions_count=10
cascade_activation_functions=3 5 7 8 10 11 14 15 16 17 
cascade_activation_steepnesses_count=4
cascade_activation_steepnesses=2.50000000000000000000e-01 5.00000000000000000000e-01 7.50000000000000000000e-01 1.00000000000000000000e+00 
layer_sizes=1025 33 2 
scale_included=0
neurons (num_inputs, activation_function, activation_steepness)=(0, 0, 0.00000000000000000000e+00) (0, 0, 0.00000000000000000000e+00) (0, 0, 0.00000000000000000000e+00) (0, 0, 0.00000000000000000000e+00) (0, 0, 0.00000000000000000000e+00) (0, 0, 0.00000000000000000000e+00) (0, 0, 0.00000000000000000000e+00) (0, 0, 0.00000000000000000000e+00) (0, 0, 0.00000000000000000000e+00) (0, 0, 0.00000000000000000000e+00) (0, 0, 0.00000000000000000000e+00) (0, 0, 0.00000000000000000000e+00) (0, 0, 0.00000000000000000000e+00) (0, 0, 0.00000000000000000000e+00) (0, 0, 0.00000000000000000000e+00) (0, 0, 0.00000000000000000000e+00) (0, 0, 0.00000000000000000000e+00) (0, 0, 0.00000000000000000000e+00) (0, 0, 0.00000000000000000000e+00) (0, 0, 0.00000000000000000000e+00) (0, 0, 0.00000000000000000000e+00) (0, 0, 0.00000000000000000000e+00) (0, 0, 0.00000000000000000000e+00) (0, 0, 0.00000000000000000000e+00) (0, 0, 0.00000000000000000000e+00) (0, 0, 0.00000000000000000000e+00) (0, 0, 0.00000000000000000000e+00) (0, 0, 0.00000000000000000000e+00) (0, 0, 0.00000000000000000000e+00) (0, 0, 0.00000000000000000000e+00) (0, 0, 0.00000000000000000000e+00) (0, 0, 0.00000000000000000000e+00) (0, 0, 0.00000000000000000000e+00) (0, 0, 0.00000000000000000000e+00) (0, 0, 0.00000000000000000000e+00) (0, 0, 0.00000000000000000000e+00) (0, 0, 0.00000000000000000000e+00) (0, 0, 0.00000000000000000000e+00) (0, 0, 0.00000000000000000000e+00) (0, 0, 0.00000000000000000000e+00) (0, 0, 0.00000000000000000000e+00) (0, 0, 0.00000000000000000000e+00) (0, 0, 0.00000000000000000000e+00) (0, 0, 0.00000000000000000000e+00) (0, 0, 0.00000000000000000000e+00) (0, 0, 0.00000000000000000000e+00) (0, 0, 0.00000000000000000000e+00) (0, 0, 0.00000000000000000000e+00) (0, 0, 0.00000000000000000000e+00) (0, 0, 0.00000000000000000000e+00) (0, 0, 0.00000000000000000000e+00) (0, 0, 0.00000000000000000000e+00) (0, 0, 0.00000000000000000000e+00) (0, 0, 0.00000000000000000000e+00) (0, 0, 0.00000000000000000000e+00) (0, 0, 0.00000000000000000000e+00) (0, 0, 0.00000000000000000000e+00) (0, 0, 0.00000000000000000000e+00) (0, 0, 0.00000000000000000000e+00) (0, 0, 0.00000000000000000000e+00) (0, 0, 0.00000000000000000000e+00) (0, 0, 0.00000000000000000000e+00) (0, 0, 0.00000000000000000000e+00) (0, 0, 0.00000000000000000000e+00) (0, 0, 0.00000000000000000000e+00) (0, 0, 0.00000000000000000000e+00) (0, 0, 0.00000000000000000000e+00) (0, 0, 0.00000000000000000000e+00) (0, 0, 0.00000000000000000000e+00) (0, 0, 0.00000000000000000000e+00) (0, 0, 0.00000000000000000000e+00) (0, 0, 0.00000000000000000000e+00) (0, 0, 0.00000000000000000000e+00) (0, 0, 0.00000000000000000000e+00) (0, 0, 0.00000000000000000000e+00) (0, 0, 0.00000000000000000000e+00) (0, 0, 0.00000000000000000000e+00) (0, 0, 0.00000000000000000000e+00) (0, 0, 0.00000000000000000000e+00) (0, 0, 0.00000000000000000000e+00) (0, 0, 0.00000000000000000000e+00) (0, 0, 0.00000000000000000000e+00) (0, 0, 0.00000000000000000000e+00) (0, 0, 0.00000000000000000000e+00) (0, 0, 0.00000000000000000000e+00) (0, 0, 0.00000000000000000000e+00) (0, 0, 0.00000000000000000000e+00) (0, 0, 0.00000000000000000000e+00) (0, 0, 0.00000000000000000000e+00) (0, 0, 0.00000000000000000000e+00) (0, 0, 0.00000000000000000000e+00) (0, 0, 0.00000000000000000000e+00) (0, 0, 0.00000000000000000000e+00) (0, 0, 0.00000000000000000000e+00) (0, 0, 0.00000000000000000000e+00) (0, 0, 0.00000000000000000000e+00) (0, 0, 0.00000000000000000000e+00) (0, 0, 0.00000000000000000000e+00) (0, 0, 0.00000000000000000000e+00) (0, 0, 0.00000000000000000000e+00) (0, 0, 0.00000000000000000000e+00) (0, 0, 0.00000000000000000000e+00) (0, 0, 0.00000000000000000000e+00) (0, 0, 0.00000000000000000000e+00) (0, 0, 0.00000000000000000000e+00) (0, 0, 0.00000000000000000000e+00) (0, 0, 0.00000000000000000000e+00) (0, 0, 0.00000000000000000000e+00) (0, 0, 0.00000000000000000000e+00) (0, 0, 0.00000000000000000000e+00) (0, 0, 0.00000000000000000000e+00) (0, 0, 0.00000000000000000000e+00) (0, 0, 0.00000000000000000000e+00) (0, 0, 0.00000000000000000000e+00) (0, 0, 0.00000000000000000000e+00) (0, 0, 0.00000000000000000000e+00) (0, 0, 0.00000000000000000000e+00) (0, 0, 0.00000000000000000000e+00) (0, 0, 0.00000000000000000000e+00) (0, 0, 0.00000000000000000000e+00) (0, 0, 0.00000000000000000000e+00) (0, 0, 0.00000000000000000000e+00) (0, 0, 0.00000000000000000000e+00) (0, 0, 0.00000000000000000000e+00) (0, 0, 0.00000000000000000000e+00) (0, 0, 0.00000000000000000000e+00) (0, 0, 0.00000000000000000000e+00) (0, 0, 0.00000000000000000000e+00) (0, 0, 0.00000000000000000000e+00) (0, 0, 0.00000000000000000000e+00) (0, 0, 0.00000000000000000000e+00) (0, 0, 0.00000000000000000000e+00) (0, 0, 0.00000000000000000000e+00) (0, 0, 0.00000000000000000000e+00) (0, 0, 0.00000000000000000000e+00) (0, 0, 0.00000000000000000000e+00) (0, 0, 0.00000000000000000000e+00) (0, 0, 0.00000000000000000000e+00) (0, 0, 0.00000000000000000000e+00) (0, 0, 0.00000000000000000000e+00) (0, 0, 0.00000000000000000000e+00) (0, 0, 0.00000000000000000000e+00) (0, 0, 0.00000000000000000000e+00) (0, 0, 0.00000000000000000000e+00) (0, 0, 0.00000000000000000000e+00) (0, 0, 0.00000000000000000000e+00) (0, 0, 0.00000000000000000000e+00) (0, 0, 0.00000000000000000000e+00) (0, 0, 0.00000000000000000000e+00) (0, 0, 0.00000000000000000000e+00) (0, 0, 0.00000000000000000000e+00) (0, 0, 0.00000000000000000000e+00) (0, 0, 0.00000000000000000000e+00) (0, 0, 0.00000000000000000000e+00) (0, 0, 0.00000000000000000000e+00) (0, 0, 0.00000000000000000000e+00) (0, 0, 0.00000000000000000000e+00) (0, 0, 0.00000000000000000000e+00) (0, 0, 0.00000000000000000000e+00) (0, 0, 0.00000000000000000000e+00) (0, 0, 0.00000000000000000000e+00) (0, 0, 0.00000000000000000000e+00) (0, 0, 0.00000000000000000000e+00) (0, 0, 0.00000000000000000000e+00) (0, 0, 0.00000000000000000000e+00) (0, 0, 0.00000000000000000000e+00) (0, 0, 0.00000000000000000000e+00) (0, 0, 0.00000000000000000000e+00) (0, 0, 0.00000000000000000000e+00) (0, 0, 0.00000000000000000000e+00) (0, 0, 0.00000000000000000000e+00) (0, 0, 0.00000000000000000000e+00) (0, 0, 0.00000000000000000000e+00) (0, 0, 0.00000000000000000000e+00) (0, 0, 0.00000000000000000000e+00) (0, 0, 0.00000000000000000000e+00) (0, 0, 0.00000000000000000000e+00) (0, 0, 0.00000000000000000000e+00) (0, 0, 0.00000000000000000000e+00) (0, 0, 0.00000000000000000000e+00) (0, 0, 0.00000000000000000000e+00) (0, 0, 0.00000000000000000000e+00) (0, 0, 0.00000000000000000000e+00) (0, 0, 0.00000000000000000000e+00) (0, 0, 0.00000000000000000000e+00) (0, 0, 0.00000000000000000000e+00) (0, 0, 0.00000000000000000000e+00) (0, 0, 0.00000000000000000000e+00) (0, 0, 0.00000000000000000000e+00) (0, 0, 0.00000000000000000000e+00) (0, 0, 0.00000000000000000000e+00) (0, 0, 0.00000000000000000000e+00) (0, 0, 0.00000000000000000000e+00) (0, 0, 0.00000000000000000000e+00) (0, 0, 0.00000000000000000000e+00) (0, 0, 0.00000000000000000000e+00) (0, 0, 0.00000000000000000000e+00) (0, 0, 0.00000000000000000000e+00) (0, 0, 0.00000000000000000000e+00) (0, 0, 0.00000000000000000000e+00) (0, 0, 0.00000000000000000000e+00) (0, 0, 0.00000000000000000000e+00) (0, 0, 0.00000000000000000000e+00) (0, 0, 0.00000000000000000000e+00) (0, 0, 0.00000000000000000000e+00) (0, 0, 0.00000000000000000000e+00) (0, 0, 0.00000000000000000000e+00) (0, 0, 0.00000000000000000000e+00) (0, 0, 0.00000000000000000000e+00) (0, 0, 0.00000000000000000000e+00) (0, 0, 0.00000000000000000000e+00) (0, 0, 0.00000000000000000000e+00) (0, 0, 0.00000000000000000000e+00) (0, 0, 0.00000000000000000000e+00) (0, 0, 0.00000000000000000000e+00) (0, 0, 0.00000000000000000000e+00) (0, 0, 0.00000000000000000000e+00) (0, 0, 0.00000000000000000000e+00) (0, 0, 0.00000000000000000000e+00) (0, 0, 0.00000000000000000000e+00) (0, 0, 0.00000000000000000000e+00) (0, 0, 0.00000000000000000000e+00) (0, 0, 0.00000000000000000000e+00) (0, 0, 0.00000000000000000000e+00) (0, 0, 0.00000000000000000000e+00) (0, 0, 0.00000000000000000000e+00) (0, 0, 0.00000000000000000000e+00) (0, 0, 0.00000000000000000000e+00) (0, 0, 0.00000000000000000000e+00) (0, 0, 0.00000000000000000000e+00) (0, 0, 0.00000000000000000000e+00) (0, 0, 0.00000000000000000000e+00) (0, 0, 0.00000000000000000000e+00) (0, 0, 0.00000000000000000000e+00) (0, 0, 0.00000000000000000000e+00) (0, 0, 0.00000000000000000000e+00) (0, 0, 0.00000000000000000000e+00) (0, 0, 0.00000000000000000000e+00) (0, 0, 0.00000000000000000000e+00) (0, 0, 0.00000000000000000000e+00) (0, 0, 0.00000000000000000000e+00) (0, 0, 0.00000000000000000000e+00) (0, 0, 0.00000000000000000000e+00) (0, 0, 0.00000000000000000000e+00) (0, 0, 0.00000000000000000000e+00) (0, 0, 0.00000000000000000000e+00) (0, 0, 0.00000000000000000000e+00) (0, 0, 0.00000000000000000000e+00) (0, 0, 0.00000000000000000000e+00) (0, 0, 0.00000000000000000000e+00) (0, 0, 0.00000000000000000000e+00) (0, 0, 0.00000000000000000000e+00) (0, 0, 0.00000000000000000000e+00) (0, 0, 0.00000000000000000000e+00) (0, 0, 0.00000000000000000000e+00) (0, 0, 0.00000000000000000000e+00) (0, 0, 0.00000000000000000000e+00) (0, 0, 0.00000000000000000000e+00) (0, 0, 0.00000000000000000000e+00) (0, 0, 0.00000000000000000000e+00) (0, 0, 0.00000000000000000000e+00) (0, 0, 0.00000000000000000000e+00) (0, 0, 0.00000000000000000000e+00) (0, 0, 0.00000000000000000000e+00) (0, 0, 0.00000000000000000000e+00) (0, 0, 0.00000000000000000000e+00) (0, 0, 0.00000000000000000000e+00) (0, 0, 0.00000000000000000000e+00) (0, 0, 0.00000000000000000000e+00) (0, 0, 0.00000000000000000000e+00) (0, 0, 0.00000000000000000000e+00) (0, 0, 0.00000000000000000000e+00) (0, 0, 0.00000000000000000000e+00) (0, 0, 0.00000000000000000000e+00) (0, 0, 0.00000000000000000000e+00) (0, 0, 0.00000000000000000000e+00) (0, 0, 0.00000000000000000000e+00) (0, 0, 0.00000000000000000000e+00) (0, 0, 0.00000000000000000000e+00) (0, 0, 0.00000000000000000000e+00) (0, 0, 0.00000000000000000000e+00) (0, 0, 0.00000000000000000000e+00) (0, 0, 0.00000000000000000000e+00) (0, 0, 0.00000000000000000000e+00) (0, 0, 0.00000000000000000000e+00) (0, 0, 0.00000000000000000000e+00) (0, 0, 0.00000000000000000000e+00) (0, 0, 0.00000000000000000000e+00) (0, 0, 0.00000000000000000000e+00) (0, 0, 0.00000000000000000000e+00) (0, 0, 0.00000000000000000000e+00) (0, 0, 0.00000000000000000000e+00) (0, 0, 0.00000000000000000000e+00) (0, 0, 0.00000000000000000000e+00) (0, 0, 0.00000000000000000000e+00) (0, 0, 0.00000000000000000000e+00) (0, 0, 0.00000000000000000000e+00) (0, 0, 0.00000000000000000000e+00) (0, 0, 0.00000000000000000000e+00) (0, 0, 0.00000000000000000000e+00) (0, 0, 0.00000000000000000000e+00) (0, 0, 0.00000000000000000000e+00) (0, 0, 0.00000000000000000000e+00) (0, 0, 0.00000000000000000000e+00) (0, 0, 0.00000000000000000000e+00) (0, 0, 0.00000000000000000000e+00) (0, 0, 0.00000000000000000000e+00) (0, 0, 0.00000000000000000000e+00) (0, 0, 0.00000000000000000000e+00) (0, 0, 0.00000000000000000000e+00) (0, 0, 0.00000000000000000000e+00) (0, 0, 0.00000000000000000000e+00) (0, 0, 0.00000000000000000000e+00) (0, 0, 0.00000000000000000000e+00) (0, 0, 0.00000000000000000000e+00) (0, 0, 0.00000000000000000000e+00) (0, 0, 0.00000000000000000000e+00) (0, 0, 0.00000000000000000000e+00) (0, 0, 0.00000000000000000000e+00) (0, 0, 0.00000000000000000000e+00) (0, 0, 0.00000000000000000000e+00) (0, 0, 0.00000000000000000000e+00) (0, 0, 0.00000000000000000000e+00) (0, 0, 0.00000000000000000000e+00) (0, 0, 0.00000000000000000000e+00) (0, 0, 0.00000000000000000000e+00) (0, 0, 0.00000000000000000000e+00) (0, 0, 0.00000000000000000000e+00) (0, 0, 0.00000000000000000000e+00) (0, 0, 0.00000000000000000000e+00) (0, 0, 0.00000000000000000000e+00) (0, 0, 0.00000000000000000000e+00) (0, 0, 0.00000000000000000000e+00) (0, 0, 0.00000000000000000000e+00) (0, 0, 0.00000000000000000000e+00) (0, 0, 0.00000000000000000000e+00) (0, 0, 0.00000000000000000000e+00) (0, 0, 0.00000000000000000000e+00) (0, 0, 0.00000000000000000000e+00) (0, 0, 0.00000000000000000000e+00) (0, 0, 0.00000000000000000000e+00) (0, 0, 0.00000000000000000000e+00) (0, 0, 0.00000000000000000000e+00) (0, 0, 0.00000000000000000000e+00) (0, 0, 0.00000000000000000000e+00) (0, 0, 0.00000000000000000000e+00) (0, 0, 0.00000000000000000000e+00) (0, 0, 0.00000000000000000000e+00) (0, 0, 0.00000000000000000000e+00) (0, 0, 0.00000000000000000000e+00) (0, 0, 0.00000000000000000000e+00) (0, 0, 0.00000000000000000000e+00) (0, 0, 0.00000000000000000000e+00) (0, 0, 0.00000000000000000000e+00) (0, 0, 0.00000000000000000000e+00) (0, 0, 0.00000000000000000000e+00) (0, 0, 0.00000000000000000000e+00) (0, 0, 0.00000000000000000000e+00) (0, 0, 0.00000000000000000000e+00) (0, 0, 0.00000000000000000000e+00) (0, 0, 0.00000000000000000000e+00) (0, 0, 0.00000000000000000000e+00) (0, 0, 0.00000000000000000000e+00) (0, 0, 0.00000000000000000000e+00) (0, 0, 0.00000000000000000000e+00) (0, 0, 0.00000000000000000000e+00) (0, 0, 0.00000000000000000000e+00) (0, 0, 0.00000000000000000000e+00) (0, 0, 0.00000000000000000000e+00) (0, 0, 0.00000000000000000000e+00) (0, 0, 0.00000000000000000000e+00) (0, 0, 0.00000000000000000000e+00) (0, 0, 0.00000000000000000000e+00) (0, 0, 0.00000000000000000000e+00) (0, 0, 0.00000000000000000000e+00) (0, 0, 0.00000000000000000000e+00) (0, 0, 0.00000000000000000000e+00) (0, 0, 0.00000000000000000000e+00) (0, 0, 0.00000000000000000000e+00) (0, 0, 0.00000000000000000000e+00) (0, 0, 0.00000000000000000000e+00) (0, 0, 0.00000000000000000000e+00) (0, 0, 0.00000000000000000000e+00) (0, 0, 0.00000000000000000000e+00) (0, 0, 0.00000000000000000000e+00) (0, 0, 0.00000000000000000000e+00) (0, 0, 0.00000000000000000000e+00) (0, 0, 0.00000000000000000000e+00) (0, 0, 0.00000000000000000000e+00) (0, 0, 0.00000000000000000000e+00) (0, 0, 0.00000000000000000000e+00) (0, 0, 0.00000000000000000000e+00) (0, 0, 0.00000000000000000000e+00) (0, 0, 0.00000000000000000000e+00) (0, 0, 0.00000000000000000000e+00) (0, 0, 0.00000000000000000000e+00) (0, 0, 0.00000000000000000000e+00) (0, 0, 0.00000000000000000000e+00) (0, 0, 0.00000000000000000000e+00) (0, 0, 0.00000000000000000000e+00) (0, 0, 0.00000000000000000000e+00) (0, 0, 0.00000000000000000000e+00) (0, 0, 0.00000000000000000000e+00) (0, 0, 0.00000000000000000000e+00) (0, 0, 0.00000000000000000000e+00) (0, 0, 0.00000000000000000000e+00) (0, 0, 0.00000000000000000000e+00) (0, 0, 0.00000000000000000000e+00) (0, 0, 0.00000000000000000000e+00) (0, 0, 0.00000000000000000000e+00) (0, 0, 0.00000000000000000000e+00) (0, 0, 0.00000000000000000000e+00) (0, 0, 0.00000000000000000000e+00) (0, 0, 0.00000000000000000000e+00) (0, 0, 0.00000000000000000000e+00) (0, 0, 0.00000000000000000000e+00) (0, 0, 0.00000000000000000000e+00) (0, 0, 0.00000000000000000000e+00) (0, 0, 0.00000000000000000000e+00) (0, 0, 0.00000000000000000000e+00) (0, 0, 0.00000000000000000000e+00) (0, 0, 0.00000000000000000000e+00) (0, 0, 0.00000000000000000000e+00) (0, 0, 0.00000000000000000000e+00) (0, 0, 0.00000000000000000000e+00) (0, 0, 0.00000000000000000000e+00) (0, 0, 0.00000000000000000000e+00) (0, 0, 0.00000000000000000000e+00) (0, 0, 0.00000000000000000000e+00) (0, 0, 0.00000000000000000000e+00) (0, 0, 0.00000000000000000000e+00) (0, 0, 0.00000000000000000000e+00) (0, 0, 0.00000000000000000000e+00) (0, 0, 0.00000000000000000000e+00) (0, 0, 0.00000000000000000000e+00) (0, 0, 0.00000000000000000000e+00) (0, 0, 0.00000000000000000000e+00) (0, 0, 0.00000000000000000000e+00) (0, 0, 0.00000000000000000000e+00) (0, 0, 0.00000000000000000000e+00) (0, 0, 0.00000000000000000000e+00) (0, 0, 0.00000000000000000000e+00) (0, 0, 0.00000000000000000000e+00) (0, 0, 0.00000000000000000000e+00) (0, 0, 0.00000000000000000000e+00) (0, 0, 0.00000000000000000000e+00) (0, 0, 0.00000000000000000000e+00) (0, 0, 0.00000000000000000000e+00) (0, 0, 0.00000000000000000000e+00) (0, 0, 0.00000000000000000000e+00) (0, 0, 0.00000000000000000000e+00) (0, 0, 0.00000000000000000000e+00) (0, 0, 0.00000000000000000000e+00) (0, 0, 0.00000000000000000000e+00) (0, 0, 0.00000000000000000000e+00) (0, 0, 0.00000000000000000000e+00) (0, 0, 0.00000000000000000000e+00) (0, 0, 0.00000000000000000000e+00) (0, 0, 0.00000000000000000000e+00) (0, 0, 0.00000000000000000000e+00) (0, 0, 0.00000000000000000000e+00) (0, 0, 0.00000000000000000000e+00) (0, 0, 0.00000000000000000000e+00) (0, 0, 0.00000000000000000000e+00) (0, 0, 0.00000000000000000000e+00) (0, 0, 0.00000000000000000000e+00) (0, 0, 0.00000000000000000000e+00) (0, 0, 0.00000000000000000000e+00) (0, 0, 0.00000000000000000000e+00) (0, 0, 0.00000000000000000000e+00) (0, 0, 0.00000000000000000000e+00) (0, 0, 0.00000000000000000000e+00) (0, 0, 0.00000000000000000000e+00) (0, 0, 0.00000000000000000000e+00) (0, 0, 0.00000000000000000000e+00) (0, 0, 0.00000000000000000000e+00) (0, 0, 0.00000000000000000000e+00) (0, 0, 0.00000000000000000000e+00) (0, 0, 0.00000000000000000000e+00) (0, 0, 0.00000000000000000000e+00) (0, 0, 0.00000000000000000000e+00) (0, 0, 0.00000000000000000000e+00) (0, 0, 0.00000000000000000000e+00) (0, 0, 0.00000000000000000000e+00) (0, 0, 0.00000000000000000000e+00) (0, 0, 0.00000000000000000000e+00) (0, 0, 0.00000000000000000000e+00) (0, 0, 0.00000000000000000000e+00) (0, 0, 0.00000000000000000000e+00) (0, 0, 0.00000000000000000000e+00) (0, 0, 0.00000000000000000000e+00) (0, 0, 0.00000000000000000000e+00) (0, 0, 0.00000000000000000000e+00) (0, 0, 0.00000000000000000000e+00) (0, 0, 0.00000000000000000000e+00) (0, 0, 0.00000000000000000000e+00) (0, 0, 0.00000000000000000000e+00) (0, 0, 0.00000000000000000000e+00) (0, 0, 0.00000000000000000000e+00) (0, 0, 0.00000000000000000000e+00) (0, 0, 0.00000000000000000000e+00) (0, 0, 0.00000000000000000000e+00) (0, 0, 0.00000000000000000000e+00) (0, 0, 0.00000000000000000000e+00) (0, 0, 0.00000000000000000000e+00) (0, 0, 0.00000000000000000000e+00) (0, 0, 0.00000000000000000000e+00) (0, 0, 0.00000000000000000000e+00) (0, 0, 0.00000000000000000000e+00) (0, 0, 0.00000000000000000000e+00) (0, 0, 0.00000000000000000000e+00) (0, 0, 0.00000000000000000000e+00) (0, 0, 0.00000000000000000000e+00) (0, 0, 0.00000000000000000000e+00) (0, 0, 0.00000000000000000000e+00) (0, 0, 0.00000000000000000000e+00) (0, 0, 0.00000000000000000000e+00) (0, 0, 0.00000000000000000000e+00) (0, 0, 0.00000000000000000000e+00) (0, 0, 0.00000000000000000000e+00) (0, 0, 0.00000000000000000000e+00) (0, 0, 0.00000000000000000000e+00) (0, 0, 0.00000000000000000000e+00) (0, 0, 0.00000000000000000000e+00) (0, 0, 0.00000000000000000000e+00) (0, 0, 0.00000000000000000000e+00) (0, 0, 0.00000000000000000000e+00) (0, 0, 0.00000000000000000000e+00) (0, 0, 0.00000000000000000000e+00) (0, 0, 0.00000000000000000000e+00) (0, 0, 0.00000000000000000000e+00) (0, 0, 0.00000000000000000000e+00) (0, 0, 0.00000000000000000000e+00) (0, 0, 0.00000000000000000000e+00) (0, 0, 0.00000000000000000000e+00) (0, 0, 0.00000000000000000000e+00) (0, 0, 0.00000000000000000000e+00) (0, 0, 0.00000000000000000000e+00) (0, 0, 0.00000000000000000000e+00) (0, 0, 0.00000000000000000000e+00) (0, 0, 0.00000000000000000000e+00) (0, 0, 0.00000000000000000000e+00) (0, 0, 0.00000000000000000000e+00) (0, 0, 0.00000000000000000000e+00) (0, 0, 0.00000000000000000000e+00) (0, 0, 0.00000000000000000000e+00) (0, 0, 0.00000000000000000000e+00) (0, 0, 0.00000000000000000000e+00) (0, 0, 0.00000000000000000000e+00) (0, 0, 0.00000000000000000000e+00) (0, 0, 0.00000000000000000000e+00) (0, 0, 0.00000000000000000000e+00) (0, 0, 0.00000000000000000000e+00) (0, 0, 0.00000000000000000000e+00) (0, 0, 0.00000000000000000000e+00) (0, 0, 0.00000000000000000000e+00) (0, 0, 0.00000000000000000000e+00) (0, 0, 0.00000000000000000000e+00) (0, 0, 0.00000000000000000000e+00) (0, 0, 0.00000000000000000000e+00) (0, 0, 0.00000000000000000000e+00) (0, 0, 0.00000000000000000000e+00) (0, 0, 0.00000000000000000000e+00) (0, 0, 0.00000000000000000000e+00) (0, 0, 0.00000000000000000000e+00) (0, 0, 0.00000000000000000000e+00) (0, 0, 0.00000000000000000000e+00) (0, 0, 0.00000000000000000000e+00) (0, 0, 0.00000000000000000000e+00) (0, 0, 0.00000000000000000000e+00) (0, 0, 0.00000000000000000000e+00) (0, 0, 0.00000000000000000000e+00) (0, 0, 0.00000000000000000000e+00) (0, 0, 0.00000000000000000000e+00) (0, 0, 0.00000000000000000000e+00) (0, 0, 0.00000000000000000000e+00) (0, 0, 0.00000000000000000000e+00) (0, 0, 0.00000000000000000000e+00) (0, 0, 0.00000000000000000000e+00) (0, 0, 0.00000000000000000000e+00) (0, 0, 0.00000000000000000000e+00) (0, 0, 0.00000000000000000000e+00) (0, 0, 0.00000000000000000000e+00) (0, 0, 0.00000000000000000000e+00) (0, 0, 0.00000000000000000000e+00) (0, 0, 0.00000000000000000000e+00) (0, 0, 0.00000000000000000000e+00) (0, 0, 0.00000000000000000000e+00) (0, 0, 0.00000000000000000000e+00) (0, 0, 0.00000000000000000000e+00) (0, 0, 0.00000000000000000000e+00) (0, 0, 0.00000000000000000000e+00) (0, 0, 0.00000000000000000000e+00) (0, 0, 0.00000000000000000000e+00) (0, 0, 0.00000000000000000000e+00) (0, 0, 0.00000000000000000000e+00) (0, 0, 0.00000000000000000000e+00) (0, 0, 0.00000000000000000000e+00) (0, 0, 0.00000000000000000000e+00) (0, 0, 0.00000000000000000000e+00) (0, 0, 0.00000000000000000000e+00) (0, 0, 0.00000000000000000000e+00) (0, 0, 0.00000000000000000000e+00) (0, 0, 0.00000000000000000000e+00) (0, 0, 0.00000000000000000000e+00) (0, 0, 0.00000000000000000000e+00) (0, 0, 0.00000000000000000000e+00) (0, 0, 0.00000000000000000000e+00) (0, 0, 0.00000000000000000000e+00) (0, 0, 0.00000000000000000000e+00) (0, 0, 0.00000000000000000000e+00) (0, 0, 0.00000000000000000000e+00) (0, 0, 0.00000000000000000000e+00) (0, 0, 0.00000000000000000000e+00) (0, 0, 0.00000000000000000000e+00) (0, 0, 0.00000000000000000000e+00) (0, 0, 0.00000000000000000000e+00) (0, 0, 0.00000000000000000000e+00) (0, 0, 0.00000000000000000000e+00) (0, 0, 0.00000000000000000000e+00) (0, 0, 0.00000000000000000000e+00) (0, 0, 0.00000000000000000000e+00) (0, 0, 0.00000000000000000000e+00) (0, 0, 0.00000000000000000000e+00) (0, 0, 0.00000000000000000000e+00) (0, 0, 0.00000000000000000000e+00) (0, 0, 0.00000000000000000000e+00) (0, 0, 0.00000000000000000000e+00) (0, 0, 0.00000000000000000000e+00) (0, 0, 0.00000000000000000000e+00) (0, 0, 0.00000000000000000000e+00) (0, 0, 0.00000000000000000000e+00) (0, 0, 0.00000000000000000000e+00) (0, 0, 0.00000000000000000000e+00) (0, 0, 0.00000000000000000000e+00) (0, 0, 0.00000000000000000000e+00) (0, 0, 0.00000000000000000000e+00) (0, 0, 0.00000000000000000000e+00) (0, 0, 0.00000000000000000000e+00) (0, 0, 0.00000000000000000000e+00) (0, 0, 0.00000000000000000000e+00) (0, 0, 0.00000000000000000000e+00) (0, 0, 0.00000000000000000000e+00) (0, 0, 0.00000000000000000000e+00) (0, 0, 0.00000000000000000000e+00) (0, 0, 0.00000000000000000000e+00) (0, 0, 0.00000000000000000000e+00) (0, 0, 0.00000000000000000000e+00) (0, 0, 0.00000000000000000000e+00) (0, 0, 0.00000000000000000000e+00) (0, 0, 0.00000000000000000000e+00) (0, 0, 0.00000000000000000000e+00) (0, 0, 0.00000000000000000000e+00) (0, 0, 0.00000000000000000000e+00) (0, 0, 0.00000000000000000000e+00) (0, 0, 0.00000000000000000000e+00) (0, 0, 0.00000000000000000000e+00) (0, 0, 0.00000000000000000000e+00) (0, 0, 0.00000000000000000000e+00) (0, 0, 0.00000000000000000000e+00) (0, 0, 0.00000000000000000000e+00) (0, 0, 0.00000000000000000000e+00) (0, 0, 0.00000000000000000000e+00) (0, 0, 0.00000000000000000000e+00) (0, 0, 0.00000000000000000000e+00) (0, 0, 0.00000000000000000000e+00) (0, 0, 0.00000000000000000000e+00) (0, 0, 0.00000000000000000000e+00) (0, 0, 0.00000000000000000000e+00) (0, 0, 0.00000000000000000000e+00) (0, 0, 0.00000000000000000000e+00) (0, 0, 0.00000000000000000000e+00) (0, 0, 0.00000000000000000000e+00) (0, 0, 0.00000000000000000000e+00) (0, 0, 0.00000000000000000000e+00) (0, 0, 0.00000000000000000000e+00) (0, 0, 0.00000000000000000000e+00) (0, 0, 0.00000000000000000000e+00) (0, 0, 0.00000000000000000000e+00) (0, 0, 0.00000000000000000000e+00) (0, 0, 0.00000000000000000000e+00) (0, 0, 0.00000000000000000000e+00) (0, 0, 0.00000000000000000000e+00) (0, 0, 0.00000000000000000000e+00) (0, 0, 0.00000000000000000000e+00) (0, 0, 0.00000000000000000000e+00) (0, 0, 0.00000000000000000000e+00) (0, 0, 0.00000000000000000000e+00) (0, 0, 0.00000000000000000000e+00) (0, 0, 0.00000000000000000000e+00) (0, 0, 0.00000000000000000000e+00) (0, 0, 0.00000000000000000000e+00) (0, 0, 0.00000000000000000000e+00) (0, 0, 0.00000000000000000000e+00) (0, 0, 0.00000000000000000000e+00) (0, 0, 0.00000000000000000000e+00) (0, 0, 0.00000000000000000000e+00) (0, 0, 0.00000000000000000000e+00) (0, 0, 0.00000000000000000000e+00) (0, 0, 0.00000000000000000000e+00) (0, 0, 0.00000000000000000000e+00) (0, 0, 0.00000000000000000000e+00) (0, 0, 0.00000000000000000000e+00) (0, 0, 0.00000000000000000000e+00) (0, 0, 0.00000000000000000000e+00) (0, 0, 0.00000000000000000000e+00) (0, 0, 0.00000000000000000000e+00) (0, 0, 0.00000000000000000000e+00) (0, 0, 0.00000000000000000000e+00) (0, 0, 0.00000000000000000000e+00) (0, 0, 0.00000000000000000000e+00) (0, 0, 0.00000000000000000000e+00) (0, 0, 0.00000000000000000000e+00) (0, 0, 0.00000000000000000000e+00) (0, 0, 0.00000000000000000000e+00) (0, 0, 0.00000000000000000000e+00) (0, 0, 0.00000000000000000000e+00) (0, 0, 0.00000000000000000000e+00) (0, 0, 0.00000000000000000000e+00) (0, 0, 0.00000000000000000000e+00) (0, 0, 0.00000000000000000000e+00) (0, 0, 0.00000000000000000000e+00) (0, 0, 0.00000000000000000000e+00) (0, 0, 0.00000000000000000000e+00) (0, 0, 0.00000000000000000000e+00) (0, 0, 0.00000000000000000000e+00) (0, 0, 0.00000000000000000000e+00) (0, 0, 0.00000000000000000000e+00) (0, 0, 0.00000000000000000000e+00) (0, 0, 0.00000000000000000000e+00) (0, 0, 0.00000000000000000000e+00) (0, 0, 0.00000000000000000000e+00) (0, 0, 0.00000000000000000000e+00) (0, 0, 0.00000000000000000000e+00) (0, 0, 0.00000000000000000000e+00) (0, 0, 0.00000000000000000000e+00) (0, 0, 0.00000000000000000000e+00) (0, 0, 0.00000000000000000000e+00) (0, 0, 0.00000000000000000000e+00) (0, 0, 0.00000000000000000000e+00) (0, 0, 0.00000000000000000000e+00) (0, 0, 0.00000000000000000000e+00) (0, 0, 0.00000000000000000000e+00) (0, 0, 0.00000000000000000000e+00) (0, 0, 0.00000000000000000000e+00) (0, 0, 0.00000000000000000000e+00) (0, 0, 0.00000000000000000000e+00) (0, 0, 0.00000000000000000000e+00) (0, 0, 0.00000000000000000000e+00) (0, 0, 0.00000000000000000000e+00) (0, 0, 0.00000000000000000000e+00) (0, 0, 0.00000000000000000000e+00) (0, 0, 0.00000000000000000000e+00) (0, 0, 0.00000000000000000000e+00) (0, 0, 0.00000000000000000000e+00) (0, 0, 0.00000000000000000000e+00) (0, 0, 0.00000000000000000000e+00) (0, 0, 0.00000000000000000000e+00) (0, 0, 0.00000000000000000000e+00) (0, 0, 0.00000000000000000000e+00) (0, 0, 0.00000000000000000000e+00) (0, 0, 0.00000000000000000000e+00) (0, 0, 0.00000000000000000000e+00) (0, 0, 0.00000000000000000000e+00) (0, 0, 0.00000000000000000000e+00) (0, 0, 0.00000000000000000000e+00) (0, 0, 0.00000000000000000000e+00) (0, 0, 0.00000000000000000000e+00) (0, 0, 0.00000000000000000000e+00) (0, 0, 0.00000000000000000000e+00) (0, 0, 0.00000000000000000000e+00) (0, 0, 0.00000000000000000000e+00) (0, 0, 0.00000000000000000000e+00) (0, 0, 0.00000000000000000000e+00) (0, 0, 0.00000000000000000000e+00) (0, 0, 0.00000000000000000000e+00) (0, 0, 0.00000000000000000000e+00) (0, 0, 0.00000000000000000000e+00) (0, 0, 0.00000000000000000000e+00) (0, 0, 0.00000000000000000000e+00) (0, 0, 0.00000000000000000000e+00) (0, 0, 0.00000000000000000000e+00) (0, 0, 0.00000000000000000000e+00) (0, 0, 0.00000000000000000000e+00) (0, 0, 0.00000000000000000000e+00) (0, 0, 0.00000000000000000000e+00) (0, 0, 0.00000000000000000000e+00) (0, 0, 0.00000000000000000000e+00) (0, 0, 0.00000000000000000000e+00) (0, 0, 0.00000000000000000000e+00) (0, 0, 0.00000000000000000000e+00) (0, 0, 0.00000000000000000000e+00) (0, 0, 0.00000000000000000000e+00) (0, 0, 0.00000000000000000000e+00) (0, 0, 0.00000000000000000000e+00) (0, 0, 0.00000000000000000000e+00) (0, 0, 0.00000000000000000000e+00) (0, 0, 0.00000000000000000000e+00) (0, 0, 0.00000000000000000000e+00) (0, 0, 0.00000000000000000000e+00) (0, 0, 0.00000000000000000000e+00) (0, 0, 0.00000000000000000000e+00) (0, 0, 0.00000000000000000000e+00) (0, 0, 0.00000000000000000000e+00) (0, 0, 0.00000000000000000000e+00) (0, 0, 0.00000000000000000000e+00) (0, 0, 0.00000000000000000000e+00) (0, 0, 0.00000000000000000000e+00) (0, 0, 0.00000000000000000000e+00) (0, 0, 0.00000000000000000000e+00) (0, 0, 0.00000000000000000000e+00) (0, 0, 0.00000000000000000000e+00) (0, 0, 0.00000000000000000000e+00) (0, 0, 0.00000000000000000000e+00) (0, 0, 0.00000000000000000000e+00) (0, 0, 0.00000000000000000000e+00) (0, 0, 0.00000000000000000000e+00) (0, 0, 0.00000000000000000000e+00) (0, 0, 0.00000000000000000000e+00) (0, 0, 0.00000000000000000000e+00) (0, 0, 0.00000000000000000000e+00) (0, 0, 0.00000000000000000000e+00) (0, 0, 0.00000000000000000000e+00) (0, 0, 0.00000000000000000000e+00) (0, 0, 0.00000000000000000000e+00) (0, 0, 0.00000000000000000000e+00) (0, 0, 0.00000000000000000000e+00) (0, 0, 0.00000000000000000000e+00) (0, 0, 0.00000000000000000000e+00) (0, 0, 0.00000000000000000000e+00) (0, 0, 0.00000000000000000000e+00) (0, 0, 0.00000000000000000000e+00) (0, 0, 0.00000000000000000000e+00) (0, 0, 0.00000000000000000000e+00) (0, 0, 0.00000000000000000000e+00) (0, 0, 0.00000000000000000000e+00) (0, 0, 0.00000000000000000000e+00) (0, 0, 0.00000000000000000000e+00) (0, 0, 0.00000000000000000000e+00) (0, 0, 0.00000000000000000000e+00) (0, 0, 0.00000000000000000000e+00) (0, 0, 0.00000000000000000000e+00) (0, 0, 0.00000000000000000000e+00) (0, 0, 0.00000000000000000000e+00) (0, 0, 0.00000000000000000000e+00) (0, 0, 0.00000000000000000000e+00) (0, 0, 0.00000000000000000000e+00) (0, 0, 0.00000000000000000000e+00) (0, 0, 0.00000000000000000000e+00) (0, 0, 0.00000000000000000000e+00) (0, 0, 0.00000000000000000000e+00) (0, 0, 0.00000000000000000000e+00) (0, 0, 0.00000000000000000000e+00) (0, 0, 0.00000000000000000000e+00) (0, 0, 0.00000000000000000000e+00) (0, 0, 0.00000000000000000000e+00) (0, 0, 0.00000000000000000000e+00) (0, 0, 0.00000000000000000000e+00) (0, 0, 0.00000000000000000000e+00) (0, 0, 0.00000000000000000000e+00) (0, 0, 0.00000000000000000000e+00) (0, 0, 0.00000000000000000000e+00) (0, 0, 0.00000000000000000000e+00) (0, 0, 0.00000000000000000000e+00) (0, 0, 0.00000000000000000000e+00) (0, 0, 0.00000000000000000000e+00) (0, 0, 0.00000000000000000000e+00) (0, 0, 0.00000000000000000000e+00) (0, 0, 0.00000000000000000000e+00) (0, 0, 0.00000000000000000000e+00) (0, 0, 0.00000000000000000000e+00) (0, 0, 0.00000000000000000000e+00) (0, 0, 0.00000000000000000000e+00) (0, 0, 0.00000000000000000000e+00) (0, 0, 0.00000000000000000000e+00) (0, 0, 0.00000000000000000000e+00) (0, 0, 0.00000000000000000000e+00) (0, 0, 0.00000000000000000000e+00) (0, 0, 0.00000000000000000000e+00) (0, 0, 0.00000000000000000000e+00) (0, 0, 0.00000000000000000000e+00) (0, 0, 0.00000000000000000000e+00) (0, 0, 0.00000000000000000000e+00) (0, 0, 0.00000000000000000000e+00) (0, 0, 0.00000000000000000000e+00) (0, 0, 0.00000000000000000000e+00) (0, 0, 0.00000000000000000000e+00) (0, 0, 0.00000000000000000000e+00) (0, 0, 0.00000000000000000000e+00) (0, 0, 0.00000000000000000000e+00) (0, 0, 0.00000000000000000000e+00) (0, 0, 0.00000000000000000000e+00) (0, 0, 0.00000000000000000000e+00) (0, 0, 0.00000000000000000000e+00) (0, 0, 0.00000000000000000000e+00) (0, 0, 0.00000000000000000000e+00) (0, 0, 0.00000000000000000000e+00) (0, 0, 0.00000000000000000000e+00) (0, 0, 0.00000000000000000000e+00) (0, 0, 0.00000000000000000000e+00) (0, 0, 0.00000000000000000000e+00) (0, 0, 0.00000000000000000000e+00) (0, 0, 0.00000000000000000000e+00) (0, 0, 0.00000000000000000000e+00) (0, 0, 0.00000000000000000000e+00) (0, 0, 0.00000000000000000000e+00) (0, 0, 0.00000000000000000000e+00) (0, 0, 0.00000000000000000000e+00) (0, 0, 0.00000000000000000000e+00) (0, 0, 0.00000000000000000000e+00) (0, 0, 0.00000000000000000000e+00) (0, 0, 0.00000000000000000000e+00) (0, 0, 0.00000000000000000000e+00) (0, 0, 0.00000000000000000000e+00) (0, 0, 0.00000000000000000000e+00) (0, 0, 0.00000000000000000000e+00) (0, 0, 0.00000000000000000000e+00) (0, 0, 0.00000000000000000000e+00) (0, 0, 0.00000000000000000000e+00) (0, 0, 0.00000000000000000000e+00) (0, 0, 0.00000000000000000000e+00) (0, 0, 0.00000000000000000000e+00) (0, 0, 0.00000000000000000000e+00) (0, 0, 0.00000000000000000000e+00) (0, 0, 0.00000000000000000000e+00) (0, 0, 0.00000000000000000000e+00) (0, 0, 0.00000000000000000000e+00) (0, 0, 0.00000000000000000000e+00) (0, 0, 0.00000000000000000000e+00) (0, 0, 0.00000000000000000000e+00) (0, 0, 0.00000000000000000000e+00) (0, 0, 0.00000000000000000000e+00) (0, 0, 0.00000000000000000000e+00) (0, 0, 0.00000000000000000000e+00) (0, 0, 0.00000000000000000000e+00) (0, 0, 0.00000000000000000000e+00) (0, 0, 0.00000000000000000000e+00) (0, 0, 0.00000000000000000000e+00) (0, 0, 0.00000000000000000000e+00) (0, 0, 0.00000000000000000000e+00) (0, 0, 0.00000000000000000000e+00) (0, 0, 0.00000000000000000000e+00) (0, 0, 0.00000000000000000000e+00) (0, 0, 0.00000000000000000000e+00) (0, 0, 0.00000000000000000000e+00) (0, 0, 0.00000000000000000000e+00) (0, 0, 0.00000000000000000000e+00) (0, 0, 0.00000000000000000000e+00) (0, 0, 0.00000000000000000000e+00) (0, 0, 0.00000000000000000000e+00) (0, 0, 0.00000000000000000000e+00) (0, 0, 0.00000000000000000000e+00) (0, 0, 0.00000000000000000000e+00) (0, 0, 0.00000000000000000000e+00) (0, 0, 0.00000000000000000000e+00) (0, 0, 0.00000000000000000000e+00) (0, 0, 0.00000000000000000000e+00) (0, 0, 0.00000000000000000000e+00) (0, 0, 0.00000000000000000000e+00) (0, 0, 0.00000000000000000000e+00) (0, 0, 0.00000000000000000000e+00) (0, 0, 0.00000000000000000000e+00) (0, 0, 0.00000000000000000000e+00) (0, 0, 0.00000000000000000000e+00) (0, 0, 0.00000000000000000000e+00) (0, 0, 0.00000000000000000000e+00) (0, 0, 0.00000000000000000000e+00) (0, 0, 0.00000000000000000000e+00) (0, 0, 0.00000000000000000000e+00) (0, 0, 0.00000000000000000000e+00) (0, 0, 0.00000000000000000000e+00) (0, 0, 0.00000000000000000000e+00) (0, 0, 0.00000000000000000000e+00) (0, 0, 0.00000000000000000000e+00) (0, 0, 0.00000000000000000000e+00) (0, 0, 0.00000000000000000000e+00) (0, 0, 0.00000000000000000000e+00) (0, 0, 0.00000000000000000000e+00) (0, 0, 0.00000000000000000000e+00) (0, 0, 0.00000000000000000000e+00) (0, 0, 0.00000000000000000000e+00) (0, 0, 0.00000000000000000000e+00) (0, 0, 0.00000000000000000000e+00) (0, 0, 0.00000000000000000000e+00) (0, 0, 0.00000000000000000000e+00) (0, 0, 0.00000000000000000000e+00) (0, 0, 0.00000000000000000000e+00) (0, 0, 0.00000000000000000000e+00) (0, 0, 0.00000000000000000000e+00) (0, 0, 0.00000000000000000000e+00) (0, 0, 0.00000000000000000000e+00) (0, 0, 0.00000000000000000000e+00) (0, 0, 0.00000000000000000000e+00) (0, 0, 0.00000000000000000000e+00) (0, 0, 0.00000000000000000000e+00) (0, 0, 0.00000000000000000000e+00) (0, 0, 0.00000000000000000000e+00) (0, 0, 0.00000000000000000000e+00) (0, 0, 0.00000000000000000000e+00) (0, 0, 0.00000000000000000000e+00) (0, 0, 0.00000000000000000000e+00) (0, 0, 0.00000000000000000000e+00) (0, 0, 0.00000000000000000000e+00) (0, 0, 0.00000000000000000000e+00) (0, 0, 0.00000000000000000000e+00) (0, 0, 0.00000000000000000000e+00) (0, 0, 0.00000000000000000000e+00) (0, 0, 0.00000000000000000000e+00) (0, 0, 0.00000000000000000000e+00) (0, 0, 0.00000000000000000000e+00) (0, 0, 0.00000000000000000000e+00) (0, 0, 0.00000000000000000000e+00) (0, 0, 0.00000000000000000000e+00) (0, 0, 0.00000000000000000000e+00) (0, 0, 0.00000000000000000000e+00) (0, 0, 0.00000000000000000000e+00) (0, 0, 0.00000000000000000000e+00) (0, 0, 0.00000000000000000000e+00) (0, 0, 0.00000000000000000000e+00) (0, 0, 0.00000000000000000000e+00) (0, 0, 0.00000000000000000000e+00) (0, 0, 0.00000000000000000000e+00) (0, 0, 0.00000000000000000000e+00) (0, 0, 0.00000000000000000000e+00) (0, 0, 0.00000000000000000000e+00) (1025, 5, 5.00000000000000000000e-01) (1025, 5, 5.00000000000000000000e-01) (1025, 5, 5.00000000000000000000e-01) (1025, 5, 5.00000000000000000000e-01) (1025, 5, 5.00000000000000000000e-01) (1025, 5, 5.00000000000000000000e-01) (1025, 5, 5.00000000000000000000e-01) (1025, 5, 5.00000000000000000000e-01) (1025, 5, 5.00000000000000000000e-01) (1025, 5, 5.00000000000000000000e-01) (1025, 5, 5.00000000000000000000e-01) (1025, 5, 5.00000000000000000000e-01) (1025, 5, 5.00000000000000000000e-01) (1025, 5, 5.00000000000000000000e-01) (1025, 5, 5.00000000000000000000e-01) (1025, 5, 5.00000000000000000000e-01) (1025, 5, 5.00000000000000000000e-01) (1025, 5, 5.00000000000000000000e-01) (1025, 5, 5.00000000000000000000e-01) (1025, 5, 5.00000000000000000000e-01) (1025, 5, 5.00000000000000000000e-01) (1025, 5, 5.00000000000000000000e-01) (1025, 5, 5.00000000000000000000e-01) (1025, 5, 5.00000000000000000000e-01) (1025, 5, 5.00000000000000000000e-01) (1025, 5, 5.00000000000000000000e-01) (1025, 5, 5.00000000000000000000e-01) (1025, 5, 5.00000000000000000000e-01) (1025, 5, 5.00000000000000000000e-01) (1025, 5, 5.00000000000000000000e-01) (1025, 5, 5.00000000000000000000e-01) (1025, 5, 5.00000000000000000000e-01) (0, 5, 0.00000000000000000000e+00) (33, 5, 5.00000000000000000000e-01) (0, 5, 0.00000000000000000000e+00) 
connections (connected_to_neuron, weight)=(0, 1.22631431470153273722e+01) (1, 1.84271087933814072812e+01) (2, 4.43270795885423254390e+01) (3, 2.22573550835691147398e+00) (4, -6.17173642368070929365e+00) (5, -2.40872941759116843130e+00) (6, -4.17154962087281191430e+01) (7, 3.09441092445364347441e+01) (8, -6.90721058446746916104e+00) (9, -4.47817964505297041455e+01) (10, 8.12700948243146115146e+01) (11, 2.90387239404115398145e+01) (12, 6.39850902224679352059e+00) (13, 1.10474319864320520423e+01) (14, 6.00368016248234148691e+00) (15, 1.12697482321571911257e+02) (16, 1.98019049954137017266e+02) (17, 2.71981255517397251253e+01) (18, 5.72136629326113705929e+01) (19, 7.11304419636473141964e+01) (20, -1.49043060435062670877e+03) (21, 1.33710727373390852790e+02) (22, -5.96827410661684396587e+01) (23, 8.40968162898400919403e+01) (24, 5.19085762326044317660e+01) (25, 5.74445395727127134933e+01) (26, 1.32092700472274344747e+02) (27, -5.90314480902263653661e+02) (28, 4.78937153152998507100e-01) (29, 1.89881449065322058800e+01) (30, 4.39603842216499600681e+01) (31, 3.76096618830209422413e+02) (32, 3.71229282977102386099e+01) (33, -1.50000000000000000000e+03) (34, -1.98879585359473196604e+01) (35, 7.42890613462882356544e+01) (36, 4.06052989175711331882e+00) (37, 1.37200961698085546203e+01) (38, 7.99370428700813278056e+01) (39, -2.45975994577265346663e+01) (40, -1.44795685189751026201e+02) (41, 2.02087080660434565971e+01) (42, 6.70186623704499595533e+01) (43, 6.90283861132964062790e+01) (44, 1.52344051447728645599e+02) (45, -8.20456866648015079591e+01) (46, -1.49695146544412432377e+03) (47, -1.50000000000000000000e+03) (48, 4.67298194215209150570e+00) (49, -7.66077922395976145253e+01) (50, -1.12621837498069211847e+02) (51, 2.14753431160586274018e+02) (52, 6.98669000458831561673e+01) (53, 3.25170246924603304706e+02) (54, 5.44302517888992625217e+01) (55, -9.83347671779779943790e+02) (56, 1.20871398022394549443e+00) (57, -7.47574087821536522824e+02) (58, -6.29345139601315040068e+01) (59, 9.57292819334559510480e+01) (60, 3.50323540607919596823e+01) (61, 2.60157596980774542317e+02) (62, -1.45877839319010664809e+01) (63, -4.52899549099047220579e+01) (64, 9.75619315502069213153e+01) (65, 1.33300355625808862214e+02) (66, 1.55788958937639790747e+02) (67, 3.66495724705958991763e+01) (68, 1.63795802734920714627e+00) (69, -9.80325552005574678560e+01) (70, 1.90062594761523769193e+02) (71, 1.19710825874817032854e+02) (72, -1.38940917776483189527e+02) (73, 8.56976431395481519360e+00) (74, 5.83617603519754126751e+01) (75, 7.84182294555848358186e+01) (76, -1.31811981554858249410e+02) (77, -7.61153605047650103188e+02) (78, 8.10617966526040447661e+01) (79, -4.97737096896112802824e+01) (80, -6.48929152480416320259e+01) (81, 1.41531438468240395423e+02) (82, -3.15663328937025546850e+01) (83, -1.50000000000000000000e+03) (84, -1.10871909146653102596e+00) (85, -1.26685803760895282721e+02) (86, -4.65405853618522300508e+01) (87, 9.90096359491573139167e+01) (88, 3.81341874201002781319e+02) (89, 1.30178838305549167131e+01) (90, -3.58543418753714604463e+01) (91, -4.63284314186672290248e+01) (92, -2.00770470434832830620e+01) (93, 6.64524761786362887506e+01) (94, -3.25915766200039982436e+01) (95, 9.22179944031442317964e+01) (96, 2.45584870071967458216e+01) (97, 4.19549334249025719146e+02) (98, 1.47226865726546407132e+02) (99, 4.86564765215791794617e+01) (100, -2.74081057854372858174e+01) (101, -9.54649062082736605817e+01) (102, 5.68253001008607228073e+01) (103, 7.57091426267661091742e+01) (104, 3.01098160579508977719e+00) (105, 3.38817231289462412747e+01) (106, -1.66920105888258305527e+01) (107, 1.19663166739974357711e+02) (108, 6.48996399468616800732e+02) (109, 5.68905695880652544361e+01) (110, 1.13284397019418285879e+01) (111, 1.30321602667639723450e+02) (112, 2.90494014960083575261e+02) (113, 1.72665569745224416920e+02) (114, -7.80492754105784882768e+01) (115, 1.92754672558407946781e+01) (116, 8.36675948457505285205e+01) (117, -2.89456168868811687389e+01) (118, -1.50000000000000000000e+03) (119, -1.50000000000000000000e+03) (120, 3.75556615429006068752e+00) (121, 1.66733732496130606648e+01) (122, 8.52325870964745746505e+01) (123, 1.52077102285886631705e+01) (124, 3.00451276636445982149e+02) (125, 4.44290257142948860292e+02) (126, 1.07369604315156603747e+01) (127, 5.53060500419326288579e+01) (128, 1.74244305895965624131e+02) (129, 5.12269503454992118918e+01) (130, 2.88203702934413428238e+01) (131, -5.54039976123997917057e+01) (132, 3.53085747440858540358e+02) (133, 8.76062490848525641240e+01) (134, -4.05299462294245387284e+01) (135, 2.64316372885997850517e+02) (136, 2.00954530748318767053e+01) (137, 8.08163331135727531773e+01) (138, -3.80660098354541744925e+01) (139, 4.04746421137912761878e+01) (140, 1.81193933922683100946e+02) (141, -1.50000000000000000000e+03) (142, 1.20244969212996394958e+02) (143, -8.14394146016646942599e+01) (144, 2.12395183584097850371e+02) (145, 1.56690715163443314850e+02) (146, -2.54363669361801747471e+01) (147, 4.65790684022496108696e+01) (148, 3.26206455521369917960e+01) (149, 1.55648182302893935969e+01) (150, 1.05834466732736785843e+02) (151, 3.20414628456448838278e+02) (152, -1.50000000000000000000e+03) (153, 6.22245283559774478022e+01) (154, 3.73954313423947041883e+02) (155, 2.45586474274628528747e+02) (156, 9.59136574723190733494e+01) (157, 2.71567701212407314415e+02) (158, -1.50000000000000000000e+03) (159, -3.85111882051757845602e+02) (160, 6.43616301927409466543e+01) (161, 6.26142689933468773233e+02) (162, -1.50000000000000000000e+03) (163, -4.20178441220161232650e+02) (164, 1.65529594373129043561e+02) (165, -2.42572015204888700168e+01) (166, 5.79901760033428672614e+01) (167, 4.11006149828544266711e+02) (168, -2.43359679703284754737e+01) (169, 1.72412786641722455272e+01) (170, 2.55090113472906352854e+02) (171, 6.05591020842179204919e+02) (172, 1.82727461629287887490e+02) (173, 1.11709477822722845985e+02) (174, 1.58731622678451344655e+02) (175, 7.07494451720159673869e+01) (176, 5.66899589828570924510e+02) (177, -1.09860157309369711243e+02) (178, -2.53984718497866793996e+02) (179, 8.63646274109440099664e+01) (180, 1.15347582023949925656e+02) (181, 2.13221891107624827555e+02) (182, 1.31707176052887888318e+02) (183, 1.96049940447348411965e+01) (184, 3.02483856044409193942e+01) (185, -4.42466542968632978727e+01) (186, 7.48903389404233053028e+01) (187, -1.18173346791824116053e+02) (188, -1.59866719290026608746e+01) (189, -3.10897984830298224068e+00) (190, 3.10797219523956513854e+01) (191, -1.33327984137979137813e+03) (192, 6.02786914039832311119e+00) (193, -3.33004859041316549906e+01) (194, 2.47175129301026686335e+02) (195, 1.94951870413851651165e+02) (196, 2.96794633961733893557e+02) (197, -1.31921251517454408031e+02) (198, 5.28428365907084412356e+02) (199, 1.80181041589833732530e+01) (200, 7.34501833324390451807e-01) (201, 7.14661918162888696315e+01) (202, -1.50000000000000000000e+03) (203, -8.05977095469598765476e+01) (204, -1.37785845585853678585e+02) (205, 1.36358782438423169481e+01) (206, -8.79849130697600401163e+01) (207, 2.98722224140596601671e+01) (208, 5.75429977497988964785e+00) (209, 3.74142234523438403926e+01) (210, -7.53790291555230567155e+01) (211, -1.50000000000000000000e+03) (212, 3.58098483690428736281e+02) (213, -7.66780750903045031919e+01) (214, 2.52539396713425020380e+02) (215, 8.68833427729175440390e+01) (216, -4.49401708074572582063e+02) (217, 2.52863922843096275983e+01) (218, 7.40636174947304226635e+01) (219, 1.53881067435631649687e+02) (220, -1.43051164807915938582e+02) (221, 1.85654132750806830643e+01) (222, -7.05374492934307681935e+01) (223, -4.66807862765825404949e+02) (224, 5.40542533835226890915e+02) (225, 7.73220110106717228859e+00) (226, 3.23370501956660632459e+02) (227, 4.20756849339377581032e+01) (228, -6.02552464691198906621e+02) (229, -3.55630206252659348820e+01) (230, -1.61362922895992284111e+02) (231, 1.80882734637171324721e+02) (232, -7.72897893969398865011e+02) (233, 3.90420781628192647972e+00) (234, -2.74367360516267879689e+01) (235, -1.02234429182415780701e+02) (236, 2.76020762393397127710e+01) (237, 1.40436334713023768472e+02) (238, -2.89735535692087537996e+01) (239, 4.99571244757793806457e+01) (240, 7.67893033311342598779e+00) (241, -9.79147471509575382242e+01) (242, 1.02685234655971285633e+02) (243, 5.11591988948925290970e+02) (244, 1.84100951691081206718e+02) (245, -6.26949736546741149823e+01) (246, -1.22656316625527011865e+02) (247, 8.45783226134791874529e+01) (248, -1.37309466293719879104e+02) (249, -3.48310205562695102799e+02) (250, -1.50000000000000000000e+03) (251, -7.28194358669152705943e+01) (252, 2.67656471771742928922e+02) (253, 6.87842178800698889063e+01) (254, 1.54911798158790183777e+01) (255, 1.09464205718316816274e+03) (256, -7.91838491585587291866e+01) (257, -2.49408840665826714300e+00) (258, 2.54727584174237790648e+02) (259, -1.22205830432765901605e+03) (260, -4.34101533312049099322e+01) (261, 1.08298436038412731364e+02) (262, -6.77800169550068858371e+01) (263, -4.18760569030172220550e+01) (264, -9.68316786077458004911e+02) (265, 5.93187853796665365280e+01) (266, 4.63337979872280754989e+02) (267, -8.16741961201684745220e+01) (268, -1.50000000000000000000e+03) (269, -4.97661566911955048909e+02) (270, -9.63595157860110305137e+01) (271, 5.09881408392457899481e+02) (272, -3.07292394182339947406e+01) (273, 1.78328325170224360363e+02) (274, -1.08170116762485463369e+02) (275, 2.21787928105174785287e+02) (276, 2.86479516132367507453e+02) (277, -1.47102622502697045093e+02) (278, -8.84482254218694308179e+00) (279, -3.24236114139313684746e+01) (280, 1.43476688442554120684e+02) (281, -1.19345541003481670828e+02) (282, 3.11841584289815898501e+01) (283, 1.94442787290971295988e+02) (284, -5.82467902454859881800e+02) (285, 5.34311474248123886355e+02) (286, 3.44680979825440374498e+01) (287, -3.41512975149777133765e+01) (288, -4.30166430266046234010e+02) (289, 1.90932199980148538998e+02) (290, -1.62918865128015823984e+01) (291, -1.50000000000000000000e+03) (292, 4.77112126840181929310e+01) (293, 1.72240542948524421263e+02) (294, -5.28690385245772631606e+00) (295, 1.50439563035905081279e+02) (296, -1.45646048726544819374e+02) (297, 5.05872418631710658588e+01) (298, -6.30701778440179737117e+02) (299, 2.03387876465781914703e+02) (300, -9.09328482052119824175e+01) (301, 1.07893529365976306167e+01) (302, -3.97512918426383805581e+02) (303, -8.38532397548061823045e+01) (304, 4.48216347756899651245e+01) (305, -1.50000000000000000000e+03) (306, 1.62579815039408373423e+02) (307, -4.95691319176448303097e+02) (308, 2.19954086175985494833e+01) (309, 6.50471499327720835026e+02) (310, 6.27233773183441201127e+01) (311, 9.19096786260386835465e+01) (312, -1.50000000000000000000e+03) (313, -1.50000000000000000000e+03) (314, 1.15531986164167619791e+02) (315, -1.91657575819530023864e+01) (316, 1.23498979344094706789e+02) (317, -4.77685764497346724511e+02) (318, 1.50000000000000000000e+03) (319, 2.90306839652723525091e+01) (320, 2.30982105731824930217e+02) (321, -1.10597785284727638100e+03) (322, -4.36479458917546594421e+01) (323, 2.14350255659026004196e+02) (324, 2.67963301526125917462e+02) (325, 4.59476588421048404598e+02) (326, 2.03846686046190832542e+01) (327, -7.73796342556947820412e+01) (328, 1.50000000000000000000e+03) (329, 1.17123700280068767654e+01) (330, -1.50000000000000000000e+03) (331, -7.51047021351206467443e+00) (332, -8.84482354439233944277e+01) (333, -1.07207874632634243994e+02) (334, -2.61463958091954452811e+02) (335, 1.89491248646067845129e+02) (336, -8.27646788416892889018e+01) (337, -1.16195070603021818556e+02) (338, -8.33196909136025055886e+02) (339, 6.80692020536849213386e+02) (340, 1.05375758159378278833e+02) (341, -6.93285496344405260061e+02) (342, 2.74463108038569771452e+02) (343, -5.86784353467678215566e+02) (344, -3.17886680375127525622e+02) (345, -6.07577358531401188202e+01) (346, 1.41936620560908551170e+02) (347, -2.44940878520337491864e+02) (348, 5.94961375848608042816e+00) (349, -5.03936570191637599692e+02) (350, 4.31500411206581247825e+02) (351, -1.53326179602787703971e+02) (352, 8.05716076490933943433e+01) (353, 3.68164836620548271640e+02) (354, 2.03836427683099771002e+02) (355, -1.02242189723620981567e+02) (356, -3.58580484229200351365e+02) (357, 5.70240580943642569878e+01) (358, 5.65456844740139459304e+01) (359, 1.26209732398813571308e+02) (360, -8.49648885875780450760e+01) (361, 2.12788979481992413412e+02) (362, 9.82894724403136592628e+01) (363, -8.24513264254140267440e+02) (364, -1.52128207813820012007e+02) (365, 4.51096066338165087473e+02) (366, 7.68759996120197115488e+02) (367, -4.50201034739793612971e+02) (368, 1.57271828366792334464e+02) (369, 7.34786985892661732578e+01) (370, 5.00113063778982734675e+02) (371, 8.79742159100383958048e+01) (372, -3.79096682669830215673e+02) (373, 9.12485604478839036346e+01) (374, 3.32435819990647019040e+02) (375, 1.29642846284386166644e+02) (376, 4.78435252286668287525e+02) (377, 5.54902263418672063722e+01) (378, -1.50000000000000000000e+03) (379, -1.02539954975176371477e+02) (380, -3.69113611305406905672e+01) (381, -1.15848509348480934023e+03) (382, -1.41240374559761704631e+02) (383, -3.64349190794079277111e+02) (384, -6.67886894600869425176e+01) (385, -1.50000000000000000000e+03) (386, 1.22058713326291279344e+01) (387, 1.07672474990254343652e+02) (388, -3.52876883890407100353e+02) (389, 1.03272266495871861025e+02) (390, 4.78038895436775192138e+02) (391, -1.50000000000000000000e+03) (392, 1.01378978977445228793e+03) (393, 1.49380530886682379332e+02) (394, 1.25297172719347213388e+03) (395, -6.50804246480336274772e+01) (396, -8.61404234715828806657e+02) (397, -1.14733070067304879558e+03) (398, 2.29744201724705376932e+01) (399, -2.74732646963717741073e+02) (400, -4.66788604847820032262e+00) (401, 1.25586095813700069357e+02) (402, -2.01783102302171215570e+02) (403, -1.29330974452725115498e+02) (404, 8.07390899407544566202e+02) (405, 1.50000000000000000000e+03) (406, -2.60086299322767672493e+02) (407, 5.33125977933695935462e+02) (408, 2.11244687022417110711e+02) (409, 3.36238036990368357237e+02) (410, -1.37533893098795203969e+02) (411, -1.28584056849366334063e+03) (412, 1.76195397746998395405e+02) (413, -1.50000000000000000000e+03) (414, 4.31942271060548080186e+02) (415, -1.48379926326224307331e+02) (416, 7.10050192793573700101e+01) (417, 2.82428285024125713676e+00) (418, -1.68683296613731741331e+01) (419, -4.60390829440443042131e+02) (420, 2.39521946173339813413e+02) (421, 1.33808200714604055293e+02) (422, -9.35889272421216787734e+02) (423, 1.34812082368531861221e+02) (424, 1.21824721192869589004e+02) (425, -4.90768771334312589261e+02) (426, -1.50000000000000000000e+03) (427, 2.13977937861242821782e+02) (428, 7.88484041045172943996e+02) (429, 1.47236151793043916314e+02) (430, -1.50000000000000000000e+03) (431, -1.07979746483805527646e+02) (432, -6.70315828489765294762e+02) (433, 8.86148949376799066613e+01) (434, 1.24651376130465138203e+02) (435, 6.41109780566009703762e+02) (436, -9.88415105164092189227e+00) (437, -2.17827089663996702029e+02) (438, -1.01861861145406464857e+03) (439, -1.20526554058141050518e+03) (440, 6.21049813335518621216e+01) (441, -2.03234904417488394301e+02) (442, -1.08405919886416754139e+02) (443, 4.43842024542122260300e+02) (444, 1.75794880381568319194e+01) (445, -4.60460692116527710027e+01) (446, 3.58020899104106831601e+02) (447, -1.69168601596145919075e+02) (448, -1.50000000000000000000e+03) (449, -1.50000000000000000000e+03) (450, -1.50000000000000000000e+03) (451, -1.48730922129800177345e+02) (452, -2.84369423034955524088e+01) (453, -5.63974277878427869837e+02) (454, -1.43294252264958704712e-01) (455, -2.08758425841727898842e+02) (456, -1.05494337277747104054e+03) (457, -1.25335592618043953905e+01) (458, -1.75046291495743730593e+02) (459, -2.56850774217284424594e+02) (460, -2.15489009784701892158e+02) (461, -6.11397834965549009212e+02) (462, 2.71861827275165694573e+02) (463, 1.50000000000000000000e+03) (464, -6.26568100339383022401e+02) (465, -2.87916250612694057054e+02) (466, -9.92611685172289099910e+01) (467, 5.51252239566845219088e+02) (468, -1.12656761569989862437e+03) (469, 1.23005529037290511951e+03) (470, -4.73379231085084256847e+02) (471, 1.98691526849089598272e+02) (472, 3.52137301890748631195e+02) (473, 1.11125975749111785262e+03) (474, -3.20384090862347719053e+01) (475, -2.29735716739406768738e+02) (476, -1.02388751096226556569e+02) (477, -1.84341830677646711933e+01) (478, -7.77323749781126480229e+02) (479, 2.05268880686278322401e+02) (480, -1.50000000000000000000e+03) (481, -2.04333250683544093818e+02) (482, -1.50000000000000000000e+03) (483, -2.53377602035627447208e+01) (484, 3.01307865056120022018e+02) (485, 4.89544083229425325499e+02) (486, 1.50000000000000000000e+03) (487, -5.06348985194849063873e+01) (488, -1.50000000000000000000e+03) (489, -1.42639742482056112749e+03) (490, 2.69976362192744154811e+01) (491, -1.44924216883539884293e+02) (492, 1.07049365748141053700e+03) (493, 8.66236662662748457819e+00) (494, -1.02866498503377997054e+02) (495, -5.79760097187367023253e+02) (496, -1.50000000000000000000e+03) (497, 1.01380438904881614803e+02) (498, -8.90279252366419271425e+00) (499, 2.84627122357532016395e+02) (500, 4.42643614853369626871e+02) (501, -7.32451312828533644961e+01) (502, 6.61480144209548257095e+02) (503, 4.55887818966528243436e+02) (504, -3.30614597941821102722e+02) (505, 2.18240874520993713759e+02) (506, 3.03476718877260566387e+02) (507, 5.00311262043202418681e+02) (508, 8.71400318280831953643e+01) (509, -1.44322336108845860281e+02) (510, 9.43032621274319467375e+02) (511, 2.30382251357757354526e+02) (512, 4.00547759043690376757e+01) (513, -1.50000000000000000000e+03) (514, 9.12483035037563183778e+01) (515, -4.46466100849202803147e+02) (516, -4.70954134351748223253e+02) (517, -2.13312746190194133078e+02) (518, -4.59612015009420076694e+02) (519, -1.50000000000000000000e+03) (520, -8.93624865253610209948e+02) (521, -3.83348563956378995954e+02) (522, 3.55204513781073671908e+01) (523, -2.28248836569672732821e+02) (524, -1.30964531515033364428e+01) (525, -1.50000000000000000000e+03) (526, -1.50000000000000000000e+03) (527, -7.83991576728340078262e+02) (528, 5.02620975350361973710e+01) (529, -3.32498281232015074238e+02) (530, -6.46477814158440651227e+02) (531, -3.99553026548180810096e+02) (532, -2.39959173233132560199e+02) (533, 4.14510985533473387932e+02) (534, 2.90871433388815376020e+02) (535, 2.36034088539802731077e+01) (536, 2.24759243967318695923e+02) (537, 8.61085417302304136911e+01) (538, 4.21613040934011223726e+02) (539, -1.50000000000000000000e+03) (540, -1.15464249501488370697e+03) (541, -8.15727209192285272366e+02) (542, 1.20526554058141050518e+03) (543, -2.14236230294288588993e+02) (544, -1.50000000000000000000e+03) (545, 3.97383799887064242284e+02) (546, -1.03444592336601118632e+02) (547, -9.99637372755920381451e+01) (548, 1.30428106733910027515e+02) (549, -4.11416617408453966220e+00) (550, 6.63274971106909276841e+01) (551, -5.38333623784856854400e+02) (552, -1.25262593968309285941e+01) (553, 3.50058694032232835980e+02) (554, 2.28485792715285754184e+02) (555, -1.58060959263186617818e+02) (556, 1.07292666286940948339e+03) (557, -1.25791866546339647925e+00) (558, -1.50000000000000000000e+03) (559, -1.01014943216942825188e+02) (560, -1.50000000000000000000e+03) (561, 1.50000000000000000000e+03) (562, -1.43357000201264042971e+02) (563, -3.95432509142050250261e+01) (564, -3.00379882414758412779e+02) (565, -5.75070846147987822405e+02) (566, -2.00430652133523807379e+02) (567, -5.15502314926014378216e+02) (568, 4.23581093290522460393e+02) (569, 7.89547152516877531525e+02) (570, 8.23351470213831134970e+02) (571, -1.50000000000000000000e+03) (572, -1.50000000000000000000e+03) (573, 5.05123268525249955019e+02) (574, -1.68252793319178231002e+01) (575, 2.11116920004612410366e+02) (576, -7.04858081955836155430e+02) (577, -4.15880488225310216421e+02) (578, 3.65141615309359110597e+02) (579, 3.25251820225465905878e+02) (580, 4.76979761820567276231e+01) (581, 9.47312611770180978965e+01) (582, -2.83001404718496019086e+02) (583, 1.50000000000000000000e+03) (584, 3.19736287824207749964e+02) (585, -5.24440977927326002828e+02) (586, -4.64453277762129630446e+02) (587, -1.18967864298384071731e+01) (588, -4.30764856811719369034e+02) (589, -1.31569969930932415991e+02) (590, -1.72103657348960012996e+02) (591, -6.93322808227470432030e+02) (592, 6.69876922551959751218e+02) (593, -1.50000000000000000000e+03) (594, -3.38794688395656180546e+02) (595, 1.88917223564942915459e+01) (596, 3.65993075922910861664e+02) (597, 3.09341698389395617141e+02) (598, -3.86786373675546357731e+01) (599, -1.50000000000000000000e+03) (600, 1.09675968375407660460e+03) (601, 2.17264229416642479009e+02) (602, -2.78732874992999086317e+02) (603, 3.23445146165680228023e+02) (604, -6.46257199024586128644e+01) (605, -4.38376320947684689600e+02) (606, 7.94377677064724707634e+01) (607, -4.72523812492591275713e+02) (608, 5.49701738026352813904e+02) (609, -1.00990918601951841538e+03) (610, 1.78395821019999175405e+02) (611, 3.77846131833924971488e+02) (612, -1.10504183685394309578e+02) (613, -2.38278978053670329018e+02) (614, 1.18669410664594920490e+03) (615, 3.97013206677176071935e+02) (616, 7.23627964962246778668e+02) (617, 1.63375208379564639927e+02) (618, 5.32481880953373206466e+02) (619, 3.43753763182624538786e+02) (620, -6.27761729837202224758e+01) (621, -1.89409927255174693528e+02) (622, -2.05424067350010176369e+02) (623, 1.51310220807368210671e+02) (624, -3.15037126005926836569e+02) (625, 6.19617187476392587087e+02) (626, 9.89922585791356510754e+01) (627, 4.64348803674652614859e+01) (628, -1.38546815190195366085e+03) (629, 2.58012482732634289562e+01) (630, 2.48535893854938109371e+02) (631, 1.02402894896662019164e+03) (632, -2.26734099147551461328e+02) (633, 2.52453533420475508819e+02) (634, 5.99616455125910533752e+02) (635, -1.42316807696257797033e+03) (636, -1.26029387734867736981e+03) (637, 2.31379173718661625969e+01) (638, -5.93127423394678089608e+02) (639, -4.26070548053551931389e+02) (640, -1.50000000000000000000e+03) (641, 7.17103517991788748986e+02) (642, 2.73990378073338618492e+01) (643, 1.50000000000000000000e+03) (644, 6.19360452983465052057e+02) (645, 5.69427026549053948656e+02) (646, -1.34758430240955408408e+03) (647, -5.56591787313439340323e+02) (648, -4.66104729885029485104e+02) (649, -3.22819884160558331132e+02) (650, -4.33888573213787879013e+02) (651, -2.92502806229410452943e+02) (652, 1.51570210085567396163e+02) (653, 1.20513650619860982260e+02) (654, -7.49688369578186382114e+01) (655, -4.43311845362187284536e+02) (656, 6.29306574291259721576e+02) (657, 4.75998250532111796929e+02) (658, -4.25851125486399951114e+02) (659, 2.96911381970535899200e+02) (660, -2.56431104496473608378e+02) (661, -1.91797523814632199901e+02) (662, -1.50000000000000000000e+03) (663, 1.46699956906844931837e+02) (664, 6.55212442105930961134e+01) (665, -3.24160784458807071928e+01) (666, 4.25961708223133825868e+02) (667, -6.30901758496097926354e+01) (668, -8.23936380961221175312e+02) (669, -1.59455472009586941340e+02) (670, -2.68242614573248204124e+02) (671, 1.70751210037005336062e+02) (672, 9.61970152759181615920e+01) (673, 1.50000000000000000000e+03) (674, -2.14623588670046558491e+02) (675, 6.70489594345982311552e+01) (676, -1.85810992715605891590e+02) (677, 1.05345453660239058991e+03) (678, -1.19409482285643912292e+03) (679, -3.17323898689107579685e+01) (680, -3.01805636884412081145e+02) (681, 5.39295111647127441756e+02) (682, 2.84854067329725637592e+02) (683, 9.92627421137029557485e+01) (684, 1.16581695479746841215e+02) (685, 5.08722890970522428233e+02) (686, 2.04697913592247715542e+02) (687, -1.06649497895499962397e+03) (688, -4.01390244982892312464e+01) (689, 9.40911966352716603978e+02) (690, 5.32596093372344512318e+02) (691, 4.03729805131722116585e+02) (692, -5.73311766246911105327e+01) (693, 3.60369634506498869086e+02) (694, -9.37519058591957332283e+02) (695, 4.24839128143883115740e+01) (696, 4.82394845252600418917e+02) (697, -6.24442778692154050191e+01) (698, -1.23838661021530697326e+03) (699, -6.88516387894135618808e+02) (700, -4.39292846131038061230e+02) (701, -2.78007328791380643906e+02) (702, 1.05218210511300242160e+02) (703, 1.50000000000000000000e+03) (704, 1.58982809634399501419e+02) (705, -1.47949065928816207816e+03) (706, 7.49998229120940465009e+01) (707, -7.28338509957864175703e+02) (708, -1.50086255549207152171e+02) (709, 1.72311155456253800367e+02) (710, -4.36179668859243804491e+02) (711, -1.50000000000000000000e+03) (712, 2.79384654701328486226e+02) (713, 4.65686690403472169919e+01) (714, 5.60178876013421358948e+02) (715, 6.78661483574640328698e+02) (716, -4.27605404211541042514e+01) (717, -7.07133361192952634156e+02) (718, 5.09776825885870778166e+02) (719, 2.24032615394063640224e+02) (720, -1.89487756540061724309e+02) (721, -1.38036980180281346975e+02) (722, 1.45717510681268493045e+02) (723, 8.68390214360500038993e+01) (724, -5.38513019344452459336e+02) (725, -7.26722855774469138623e+01) (726, 7.55948589296387751801e+01) (727, 1.11767870735097545776e+02) (728, -1.17840738363250898146e+03) (729, -2.05946341886321278025e+02) (730, 1.50000000000000000000e+03) (731, -2.87954558960428300907e+02) (732, -6.16262617582465509258e+02) (733, -1.50000000000000000000e+03) (734, -2.45120944873582857326e+02) (735, -1.50000000000000000000e+03) (736, -7.71946697378005865176e+02) (737, -1.50000000000000000000e+03) (738, -1.11973048510989838178e+03) (739, 4.67070838988781758871e+02) (740, 7.67222287148097734644e+02) (741, -6.50639949190161388515e+01) (742, 6.11629634211167967806e+02) (743, -1.44235981359876859642e+03) (744, 5.89552178942152409036e+02) (745, -2.92847321353512697328e+01) (746, 2.38559152233844486091e+02) (747, 4.93927550444267694729e+02) (748, -9.70746813881960292747e+02) (749, -7.80682334435042434961e+02) (750, 5.18525601680056297482e+02) (751, 9.06841030266592724729e+01) (752, 3.79159151346589055720e+02) (753, -1.11009124115926582022e+02) (754, 1.92233584025354353741e+01) (755, 6.53241859272521452340e+01) (756, -1.54156451384123187154e+02) (757, 7.22572200630037002611e+01) (758, 8.63805205451427440266e+01) (759, 1.48231081506586917840e+02) (760, 1.37894567462423598414e+01) (761, 7.27655762053127546096e+02) (762, 7.26397862693723794791e+01) (763, 1.17308181150784275815e+03) (764, 7.06570503545908366050e+01) (765, 4.40164444039243448970e+02) (766, -4.24884683172513121008e+02) (767, 7.47633566706598003293e+02) (768, 5.18636350145307023496e+00) (769, -9.36457376019247817567e+02) (770, -1.75995449290590443070e+02) (771, -9.55243339005751522564e+02) (772, -1.14523932593361763566e+02) (773, -1.12997135575434867860e+02) (774, 1.50000000000000000000e+03) (775, 1.50000000000000000000e+03) (776, -4.65814717644935342378e+02) (777, -1.50000000000000000000e+03) (778, 7.07167439996233838428e+02) (779, 2.06495003542342942637e+02) (780, 3.54073204475300201466e+02) (781, -3.04476194336348726210e+02) (782, -6.15160406833710112551e+02) (783, -3.89842351159053976062e+02) (784, -2.60366025977337187669e+02) (785, 5.79507938746039712896e+02) (786, -9.26072268788785549987e+02) (787, -1.24607839646665524924e+03) (788, -1.50000000000000000000e+03) (789, 2.37438863142301642029e+02) (790, -1.53388688858845313234e+02) (791, 4.20812770375781042276e+02) (792, 3.20322769340033801200e+02) (793, 1.07364948981139127682e+03) (794, -8.17951705900106844638e+02) (795, -1.50000000000000000000e+03) (796, 5.31090884480035356319e+02) (797, 2.16152942806955877586e+02) (798, -1.50000000000000000000e+03) (799, 3.72082706652636659328e+02) (800, -1.50000000000000000000e+03) (801, 3.40945703271302491544e+01) (802, -1.42839061980393239537e+02) (803, -1.50000000000000000000e+03) (804, -4.28014819139520312774e+01) (805, -1.66837184453188768885e+02) (806, -2.08074017164428425986e+02) (807, 4.43716779133913462374e+02) (808, -1.23541542099312891878e+03) (809, -6.63171724958268100636e+02) (810, -7.25719761784400589022e+02) (811, -1.30478555480205837824e+01) (812, 1.37537264782255959972e+02) (813, -1.37689060129457607218e+03) (814, 1.50000000000000000000e+03) (815, 3.69465750796326972250e+02) (816, 1.50000000000000000000e+03) (817, 1.50000000000000000000e+03) (818, -5.95960303612640018400e+02) (819, -1.08151653600465692762e+03) (820, -1.50000000000000000000e+03) (821, 1.10055230213733196365e+02) (822, -8.63002214522662711715e+02) (823, -1.08003126677199617234e+02) (824, -4.79096512994809984320e+02) (825, -7.67943598504212673106e+02) (826, -1.28180756187416113789e+03) (827, 1.45618535038487721067e+03) (828, 9.47931890189078671938e+01) (829, 5.88422937328668467671e+02) (830, -1.08687641112157984935e+03) (831, -1.50000000000000000000e+03) (832, 4.79306079314439216432e+02) (833, 3.40900615820411374557e+01) (834, -2.49302411736999147251e+02) (835, 1.74149951433085846020e+02) (836, -1.50000000000000000000e+03) (837, -7.34268825037411602352e+02) (838, -5.63546781713621669496e+01) (839, 2.25202915857361629648e+00) (840, -6.67420361475200706991e+02) (841, -9.33177180830067982242e+02) (842, -3.96333141946345506312e+02) (843, -1.50000000000000000000e+03) (844, -1.50000000000000000000e+03) (845, 6.55819535554494564167e+02) (846, 8.03878479056545984349e+02) (847, -1.50000000000000000000e+03) (848, 5.55736720291890378576e+02) (849, 5.86853251135877144407e+02) (850, 4.10678487123194599917e+02) (851, 5.13157747071570838671e+02) (852, 1.50000000000000000000e+03) (853, -1.17558127238374163426e+03) (854, -1.47570617231550818360e+03) (855, -5.11834964687740637146e+02) (856, -2.82045502124292852386e+02) (857, -1.31310393452670155057e+02) (858, -1.46615241326133150324e+03) (859, -4.61819142029552153872e+02) (860, -2.63202079322577048970e+02) (861, -8.63211694690944909780e+02) (862, -1.47049025576455528608e+03) (863, -1.17166952743183863106e+01) (864, -1.50000000000000000000e+03) (865, -3.22846021041896108272e+02) (866, 5.41853535882780420252e+02) (867, -1.21775050651330411711e+03) (868, -1.95669632644280454770e+02) (869, -1.37235752289589458996e+03) (870, -1.34235111202278540077e+03) (871, -1.46107941183907911409e+02) (872, 1.01127180370334690451e+03) (873, 7.99352255701730541659e+02) (874, 1.33959842543114359614e+03) (875, -1.67285367024639697320e+02) (876, -2.20659812024396558172e+02) (877, -1.50000000000000000000e+03) (878, -2.48808469318531791714e+02) (879, -6.44158457797365826991e+02) (880, -2.34670912533435256364e+01) (881, -4.46848679402441320008e+01) (882, -1.50000000000000000000e+03) (883, 8.14814734276827834947e+02) (884, 1.50000000000000000000e+03) (885, -2.71576109536632259278e+02) (886, -1.45012557615078861772e+02) (887, 4.56937353326078454785e+00) (888, -3.71672156326412391536e+02) (889, 1.50000000000000000000e+03) (890, -1.50000000000000000000e+03) (891, 1.05286775289493948549e+03) (892, -2.95413860729137411454e+02) (893, -2.10587927059367785887e+02) (894, 2.26292765541187293366e+02) (895, 8.77910419806784574348e+01) (896, -1.96326625403917631729e+02) (897, -1.00720795941737583234e+03) (898, -1.50000000000000000000e+03) (899, 4.35815719187392801359e+02) (900, -1.50000000000000000000e+03) (901, -8.08532531543034792776e+02) (902, -1.50000000000000000000e+03) (903, 3.73503243120246906983e+02) (904, 5.50952931182936708865e+02) (905, 3.25090127368207575387e+01) (906, -1.50000000000000000000e+03) (907, -1.50000000000000000000e+03) (908, -1.50000000000000000000e+03) (909, -3.42296474441079396911e+01) (910, 3.01486859025551780178e+02) (911, 7.10803413179433505320e+02) (912, -7.76754871857516150158e+02) (913, -3.11279467796272513169e+02) (914, 1.50000000000000000000e+03) (915, 3.39653627684025025246e+02) (916, -7.82524267279855848756e+02) (917, -5.10634446261277844314e+02) (918, 1.81123583543673987606e+02) (919, 6.24047230612477363820e+01) (920, 4.89127348720438590135e+02) (921, 9.27809973269587317191e+02) (922, 4.86589742374463980923e+02) (923, -1.50000000000000000000e+03) (924, 1.97233529693697050789e+02) (925, 1.35177574230584497172e+02) (926, -1.50000000000000000000e+03) (927, -1.50000000000000000000e+03) (928, -5.00098962254834532359e+02) (929, 1.52181027420451073340e+02) (930, 4.73514610111093645628e+02) (931, -1.45552402428372971599e+02) (932, 1.15353511407131804845e+03) (933, 1.50000000000000000000e+03) (934, -8.52680596808084601435e+02) (935, -1.29240176743969914241e+03) (936, -1.81267012094343840545e+02) (937, -1.50000000000000000000e+03) (938, -6.94619154863228800423e+02) (939, -1.50000000000000000000e+03) (940, -7.07415669424129418985e+02) (941, -4.60209762842182328768e+02) (942, -6.38734730755537157165e+02) (943, 1.50000000000000000000e+03) (944, 1.13112040767633629912e+03) (945, -1.50000000000000000000e+03) (946, -1.50000000000000000000e+03) (947, -4.65459855208835691087e+01) (948, 2.97362704474775853214e+02) (949, -4.86564797768808887213e+02) (950, 1.20526554058141050518e+03) (951, -1.50000000000000000000e+03) (952, 1.11832472375497513895e+03) (953, -1.45316781645565072267e+02) (954, 8.61783536870389639262e+02) (955, -1.50000000000000000000e+03) (956, 1.87644535174132812472e+02) (957, -1.13916458724712401818e+03) (958, 3.18896983834290381310e+02) (959, -1.30547871028165474172e+02) (960, 1.82847778094853595121e+02) (961, -7.12038534618314770341e+02) (962, 2.35775097226864943423e+02) (963, 8.92944194751528925735e+02) (964, -1.50000000000000000000e+03) (965, -1.47479873600957716917e+03) (966, -1.50000000000000000000e+03) (967, -8.82064301777714376840e+02) (968, -9.80090065173992456948e+02) (969, -1.50000000000000000000e+03) (970, -1.10078391547883211388e+03) (971, -1.50000000000000000000e+03) (972, -7.01748140051798969807e+01) (973, -1.29363506016830410772e+03) (974, 2.30950052615694175984e+02) (975, -1.28168134459824727855e+03) (976, 3.48364029408661167508e+02) (977, -1.50000000000000000000e+03) (978, -1.50000000000000000000e+03) (979, -1.50000000000000000000e+03) (980, 1.60208709581704255243e+02) (981, -4.64397646348596595089e+02) (982, -2.08213910242849948418e+02) (983, -1.46440658759018401724e+03) (984, -1.23051299202374343622e+03) (985, 8.99169958586879545237e+01) (986, 2.10865143724004838077e+02) (987, -1.50000000000000000000e+03) (988, 5.04664003432064703247e+02) (989, 2.71792276879710811954e+02) (990, -1.50000000000000000000e+03) (991, -1.50000000000000000000e+03) (992, 2.12308292068115527229e+01) (993, 3.66134736611518690097e+02) (994, -4.44150557672382774399e+02) (995, -5.45125557494699705785e+02) (996, 2.48498251826364082717e+02) (997, -1.01445296481478033002e+03) (998, -4.90963433520537989807e+02) (999, 4.90936979902968175793e+02) (1000, -1.45734894451715672403e+03) (1001, 1.50000000000000000000e+03) (1002, -3.47004448128161357090e+02) (1003, -1.50000000000000000000e+03) (1004, -6.18684837450771965450e+02) (1005, -2.80083132038555859822e+00) (1006, -1.50000000000000000000e+03) (1007, 4.34779683880007837615e+02) (1008, -5.86442956884097043257e+02) (1009, -1.20526554058141050518e+03) (1010, -4.21880549244403439957e+01) (1011, -1.50000000000000000000e+03) (1012, -1.50000000000000000000e+03) (1013, 1.25496611589954136434e+03) (1014, 3.48364029408661167508e+02) (1015, 1.11204717261241898996e+03) (1016, -1.78224119548451881201e+02) (1017, 3.68806288521577073425e+02) (1018, -1.50000000000000000000e+03) (1019, -1.50000000000000000000e+03) (1020, -3.98593987072332652133e+02) (1021, 3.34550922081322653412e+02) (1022, -1.11426553652829466046e+03) (1023, 5.02937249174599571688e+02) (1024, 2.16921515165031220107e+00) (0, 1.11090885963435628270e+01) (1, 1.40706162870114557251e+01) (2, 3.44837351526066555607e+01) (3, -1.89813740153559540325e+00) (4, 6.03458530116720481828e+00) (5, -6.38803829230505648695e+00) (6, -4.21807814945570171972e+01) (7, 1.63050822453354058439e+01) (8, 2.73813915781625674128e+01) (9, -5.62055848722577948706e+01) (10, 5.48141922435960751159e+01) (11, 1.59541246141712544926e+01) (12, -1.38680794928637496355e+01) (13, 1.85425121908271712812e+01) (14, -1.44694510920599803683e+01) (15, 1.03200316248700218580e+02) (16, 1.69382476187677553980e+02) (17, -8.89969382435727425218e+01) (18, 7.31851426282676271740e+01) (19, 1.52909264343862130175e+01) (20, -9.70592114706389452294e+02) (21, 9.08439467643303686373e+01) (22, 1.87059050438222271850e+01) (23, 4.33120031078609670772e+01) (24, 6.19040050984276533086e+01) (25, -9.63957552365678371764e-01) (26, 2.68393825453826089245e+01) (27, -1.00817509815933431128e+03) (28, -2.49305097291959043559e+00) (29, 6.12477424049945540219e+00) (30, -3.02370461446480796042e+01) (31, 3.10974452493409785347e+02) (32, 1.89667273684791041433e+02) (33, -1.50000000000000000000e+03) (34, -9.33334028114029123913e+00) (35, -1.50395053968897425278e+01) (36, 2.49305629639557331245e+01) (37, 2.29352106207329455856e+01) (38, 1.02958971924594422376e+02) (39, -8.50338622462075477415e+00) (40, -1.35160899693197535498e+02) (41, 2.35510987511277178896e+01) (42, 6.78270276130978402307e+01) (43, 2.02441945806882500847e+02) (44, 7.75428805286062470259e+01) (45, -6.61720789282303059053e+01) (46, -1.48824080968020712135e+03) (47, -1.50000000000000000000e+03) (48, 4.44642114152546241712e+00) (49, -2.39721758653907990322e+00) (50, -1.46373505962270115788e+02) (51, 1.45729706744730691526e+02) (52, 3.87667036426749191946e+01) (53, 3.46336408139569869036e+02) (54, 6.45133804693750676051e+02) (55, 2.78285372134606234340e+02) (56, 4.06113400525340253466e+01) (57, 1.69340491788314380983e+02) (58, 4.64600668270697383377e+01) (59, 1.85048085819004285213e+02) (60, 1.20557035593387340100e+02) (61, 3.40709344204321098459e+02) (62, -1.49085137607709601326e+01) (63, 1.54763601208655018127e+02) (64, 1.72845853958736590528e+01) (65, 3.80237751668478765055e+01) (66, 2.53968062859150876420e+02) (67, 8.85371976495366368454e+01) (68, -3.16598010716182933777e+01) (69, -9.62498220242360531529e+01) (70, 2.06773707557603330542e+02) (71, 1.04749539983415203892e+02) (72, -1.51548944001200595721e+02) (73, 1.05315481647511486329e+01) (74, 1.19464979667078168291e+01) (75, 3.20007492594478790693e+01) (76, -3.52337508687044817179e+02) (77, -8.64083680628593356232e+02) (78, 8.78338728113257616315e+01) (79, -9.96856281636919128175e+00) (80, -3.96423731582209413205e+01) (81, 4.66600040475025963360e+01) (82, -2.96022473278157804089e+02) (83, -1.50000000000000000000e+03) (84, 1.04172011920841640631e+01) (85, -1.23554109959903811955e+02) (86, 2.67165806758593724624e+01) (87, 7.99851506118890824837e+01) (88, 2.03811905283331697092e+02) (89, 1.08852166410203867741e+01) (90, -4.37498577018603427291e+01) (91, 2.66272622206116231780e+01) (92, -6.78577949791015733183e+00) (93, 8.98822354772923119981e+01) (94, -4.70293674669832100221e+01) (95, -3.75756892730183125195e+01) (96, 5.47039503854820381434e+01) (97, 3.18596638108445688431e+02) (98, 4.84647834370752690347e+01) (99, -3.06532768254614573777e+01) (100, -3.60631106568790897882e+01) (101, -2.43760943838008934392e+01) (102, 9.47742669303474372100e+01) (103, 4.59162508704080210009e+01) (104, 5.25181669278829659220e+01) (105, -5.60771519082233727005e+00) (106, 4.12765929626279799436e+01) (107, 1.85333226226188855890e+02) (108, -5.40734396134436057224e+00) (109, 6.66621256571762046406e+01) (110, 7.79470405780565300802e+01) (111, 4.47490905814710572486e+02) (112, 1.29879965940713386630e+01) (113, 3.21812278838224301580e+02) (114, -9.38838923403969687342e+01) (115, 3.56100113447625403751e+01) (116, 6.71805216572917203166e+01) (117, -5.83018248166975112667e+01) (118, -1.50000000000000000000e+03) (119, -1.50000000000000000000e+03) (120, 3.13640050824894700554e+00) (121, 1.85161699100144332419e+01) (122, 1.14365064078795995783e+02) (123, 1.64833378447211345019e+02) (124, 3.44555462598344774960e+02) (125, 1.91297005164858916260e+02) (126, -6.38765009025756214101e+01) (127, 4.24778293487330174116e+01) (128, 9.66638713179911803763e+01) (129, 1.09930437598029229207e+02) (130, -4.71013163886757411092e+01) (131, -5.10871016118550471674e+01) (132, 2.14755043642114230806e+02) (133, 1.19175068715654205675e+02) (134, 2.15750122210326935601e+01) (135, 1.81899030493275517983e+02) (136, 4.33028692286694720792e+01) (137, 1.21668450196111180617e+02) (138, -2.21017514802269516849e+01) (139, 2.21534787478226427027e+01) (140, 2.05618395609525776990e+02) (141, -1.50000000000000000000e+03) (142, 5.47532455153881514320e+01) (143, -8.65260989799163127145e+01) (144, -8.32306244526325933464e+00) (145, 1.84728692022188056399e+02) (146, 1.34206398941801609226e+02) (147, 3.94787677162994299351e+01) (148, 5.22707522724422233296e+01) (149, 3.91830214985587232945e+01) (150, 2.90975358636152314773e+01) (151, 2.73322794891511875903e+02) (152, -1.50000000000000000000e+03) (153, 2.64794341748659462610e+02) (154, 3.31286088583945627306e+02) (155, 1.37225521985763606381e+02) (156, 9.74839274344513739834e+01) (157, 6.91473629654337173633e+02) (158, -1.37732998968642891668e+03) (159, -4.17628626843175254635e+02) (160, 1.93075791122058518567e+02) (161, 5.25379957802410785916e+02) (162, -1.50000000000000000000e+03) (163, -6.25800714160896973226e+02) (164, 3.18681227239649871308e+01) (165, 1.53622145370592928515e+01) (166, 1.57267723315673499940e+01) (167, 5.99754053487714827497e+02) (168, -4.25934576513843126122e+01) (169, 5.19672283247459816380e+01) (170, 2.37714265872934333856e+02) (171, 5.04546386796722742929e+02) (172, -1.61589607190778536960e+01) (173, -5.95557917142149264578e+01) (174, 1.42426596303214722639e+02) (175, 4.96040561122185224008e+01) (176, 2.84170553193590819774e+02) (177, -1.14510218303204709400e+02) (178, -3.31973025154714264318e+02) (179, 1.41880535934160469935e+01) (180, 9.02142617505237041087e+01) (181, 1.35460733834275430354e+02) (182, 1.08233463296444782031e+02) (183, -2.99512334157976063409e+01) (184, 2.40544214873501545071e+01) (185, -1.10153591905240119786e+02) (186, -9.01337203434184459638e+01) (187, -2.36593515572928765778e+02) (188, 2.11861826611092141093e+00) (189, -1.16031494201566630409e+02) (190, -1.21207813972893177379e+02) (191, -9.15878546617534880170e+02) (192, 3.67877907081310979720e+01) (193, 3.40239187127725131177e+01) (194, 2.78826623961384257200e+02) (195, 3.07528498318846104098e+01) (196, 3.28724116858789898288e+02) (197, -7.85981102454983329153e+02) (198, 4.57202160246016660494e+02) (199, -1.36522452509120569175e+02) (200, 9.34695236370493987010e+00) (201, -3.90483628362359468156e+02) (202, -1.50000000000000000000e+03) (203, -5.11383161477589069932e+01) (204, -3.15607493965253638635e+02) (205, 1.43808179875876636089e+01) (206, -3.50293226630467529503e+02) (207, 9.73260913353170735718e+02) (208, 1.12847793381320116168e+02) (209, 3.50542586383322202437e+02) (210, -2.56944150019479081948e+02) (211, -1.50000000000000000000e+03) (212, 2.55727043152983355867e+02) (213, 1.90175573740624770380e+01) (214, -1.11797870573195064026e+03) (215, 4.59637454364565769538e+01) (216, -1.50871488394892434570e+01) (217, -1.32970179047068512546e+02) (218, 1.43572802511860913910e+02) (219, 6.25974572167973786208e+00) (220, -2.12111248297393814255e+02) (221, 3.08799671620495743696e+01) (222, -2.33182552842920074454e+02) (223, -4.12138089055055104382e+02) (224, 7.29075596980159389204e+02) (225, -1.42594781057501194255e+01) (226, 1.48089241701649342531e+02) (227, 2.90382709209593940614e+02) (228, -6.13661161903143351992e+02) (229, 3.18475008383661268851e+01) (230, -1.03294467406941080867e+02) (231, 7.63651389215751237316e+01) (232, -8.38860546515966689185e+02) (233, -2.22666823304259850147e+02) (234, 4.57662777126426121299e+01) (235, -7.63064077398588409551e+01) (236, -1.86404549127369278949e+02) (237, 2.40339884357855964936e+02) (238, -7.49705873871981509637e+01) (239, 5.53455372166924490784e+01) (240, 9.88054461818076390500e+00) (241, 2.83101038256062373932e+01) (242, 5.59735911738543876481e+01) (243, -7.53073660798689985540e+01) (244, 2.25835951665920077858e+02) (245, -7.61302505799135502684e+01) (246, -1.44043063254223511649e+02) (247, -7.32208865556052899137e+01) (248, 1.06238996514314109731e+02) (249, -3.44927477687542818785e+02) (250, -1.50000000000000000000e+03) (251, -7.84572516785889035873e+01) (252, 2.63160891808542999115e+02) (253, 1.62534604776178838392e+02) (254, 1.13455004274002774878e+02) (255, 1.18120612321676685497e+03) (256, -1.26226477903033142525e+02) (257, -1.46575181728081886945e+01) (258, 2.67160409161471818607e+02) (259, -2.84193712406626559641e+02) (260, 4.01780821698365855354e+01) (261, 3.29978642270539310744e+01) (262, 6.81020644344294964867e+02) (263, -3.23182513629534255983e+01) (264, -1.09451217534383431484e+03) (265, -3.87374969057357034785e+01) (266, 4.47172190114377826831e+02) (267, 6.11995284119498208497e+01) (268, -1.50000000000000000000e+03) (269, -3.24203344475020571736e+02) (270, 5.77483062135242661839e+01) (271, 8.69119696395067222738e+01) (272, -1.74347426933751108891e+02) (273, 2.44280429130907151603e+02) (274, -5.41206412510638390501e+00) (275, 5.93172227150481674585e+01) (276, 8.28600821358215171131e+02) (277, -7.41006987245920498708e+01) (278, -3.73172055946426013406e+01) (279, -8.08219931171873895437e+01) (280, 8.72646088005348445904e+01) (281, -1.65670659589446074733e+02) (282, -1.23897374906024083430e+02) (283, 2.17115389102486432193e+02) (284, -5.95655426046428260634e+02) (285, 4.51652455400369547078e+02) (286, 1.31228395167195401427e+02) (287, 2.49345679130436934656e+01) (288, -3.04937507094041848177e+02) (289, -2.61993243514840052910e+01) (290, -1.68944437222724246794e+02) (291, -1.50000000000000000000e+03) (292, 3.37812822486196893124e+01) (293, 9.19624391328684538394e+01) (294, -1.29743263777121526914e+01) (295, 1.60815870368629163067e+02) (296, -6.00642672207389054506e+01) (297, 1.88576028153812302435e+02) (298, 5.89895823507521370743e+01) (299, 3.29713069976370320546e+02) (300, 1.38149035500664439269e+02) (301, 1.80365423577205035599e+02) (302, -6.47983567484546597370e+02) (303, -1.35700391184048044124e+02) (304, 2.07793986875439060213e+02) (305, -1.50000000000000000000e+03) (306, 9.29630175863395322722e+01) (307, -3.49293534229130045787e+02) (308, 5.59886594413135085802e+01) (309, 2.18346024915919542764e+02) (310, 1.43588418480625783502e+01) (311, 7.15744415905702311420e+01) (312, -1.50000000000000000000e+03) (313, -1.50000000000000000000e+03) (314, 9.49773721543566153969e+01) (315, 1.19105600058728509083e+01) (316, 4.35144598114726548488e+01) (317, -2.47279748570632762039e+02) (318, 1.50000000000000000000e+03) (319, 5.40446058389055338012e+02) (320, 4.78639143984668692156e+02) (321, -7.81065279801153792505e+02) (322, 1.45657810193589341452e+02) (323, -1.40042382444278501907e+02) (324, -9.59842811567470022283e+01) (325, 4.60260276018710783319e+02) (326, -2.41601067129677716139e+02) (327, -7.92409762949688634137e+00) (328, 1.50000000000000000000e+03) (329, 1.71427686559184337511e+02) (330, -1.50000000000000000000e+03) (331, -1.90031477341040648810e+01) (332, 1.90945420833531542826e+01) (333, -1.48324647834465451979e+02) (334, -5.20098030731615722289e+02) (335, -5.40710608254334701428e+01) (336, -5.93883250357675223086e+01) (337, 3.06223049349089393445e+01) (338, -6.26872732439075662114e+02) (339, 2.79880070090430706387e+02) (340, 1.44723387388594460390e+02) (341, -1.37382951493453879266e+03) (342, -8.92722076375738708975e+01) (343, -7.70574787833410823623e+02) (344, 1.01328845628711164295e+02) (345, 8.14973142747255074880e-01) (346, 1.49924412827423708450e+02) (347, -2.89867255955599205208e+02) (348, 9.11053580422687758755e+01) (349, -8.86008661518715143757e+02) (350, -7.20715556483065284965e+01) (351, 4.51857785147712775142e+02) (352, 2.66034498153326737224e+01) (353, -3.63364778605636900011e+02) (354, 1.09581604984826412874e+02) (355, -1.71211440917334343226e+01) (356, -5.25376107301574734265e+02) (357, 2.26588697452175011904e+02) (358, 2.26802887158629232545e+02) (359, 1.86817999325603068428e+02) (360, -1.91961397179824558634e+02) (361, 2.55298899393545497105e+02) (362, 8.91753937134943726051e+01) (363, -1.03001903837452664447e+03) (364, -2.77305603748664452723e+02) (365, 5.01856446302321671737e+02) (366, 7.96633594641488230081e+02) (367, -1.41766138684428142369e+02) (368, 1.17908931721397635783e+02) (369, 1.74515502915005612294e+02) (370, 3.03730220245884424912e+02) (371, 9.76867763736869108016e+01) (372, -7.60137223422322790611e+02) (373, -3.16602515889062186005e+00) (374, 3.50527825224929188153e+02) (375, 8.55033261254775283078e+01) (376, 1.87395909560500143698e+02) (377, 1.02226607532058906713e+02) (378, -1.50000000000000000000e+03) (379, -8.35014362045037898952e+01) (380, -2.37181359805471004165e+02) (381, -9.47407414552445175104e+02) (382, -3.06778808661777418365e+02) (383, -1.22564242322342650482e+02) (384, -6.21487719065700900956e+01) (385, -1.50000000000000000000e+03) (386, 9.07078540572539679943e+01) (387, 1.44778207234443357265e+02) (388, -5.22335905009335306204e+02) (389, 1.66783891240489566599e+02) (390, 4.82028756707606589771e+02) (391, -1.50000000000000000000e+03) (392, 5.36317668109193164128e+01) (393, -8.00562622028320589607e+01) (394, 9.00257919741620526111e+02) (395, -2.44450352364730434829e+02) (396, -1.56550305677062624454e+02) (397, -1.50000000000000000000e+03) (398, 1.18131709370567946848e+02) (399, -2.94962263312628181211e+02) (400, -8.82877726517617844593e+01) (401, -1.86571108981303659391e+01) (402, -1.14809035861731672412e+02) (403, -2.65771135882229316394e+02) (404, 5.80726851193034462995e+02) (405, 1.50000000000000000000e+03) (406, 3.67303966900650038951e+02) (407, 3.79182183363187903069e+02) (408, 3.29641030023658288428e+02) (409, 1.93077753878754691641e+02) (410, -2.10191104410121113233e+02) (411, -1.03540206414300905635e+03) (412, 5.98365038408058012465e+02) (413, -1.50000000000000000000e+03) (414, 3.45774821024086634225e+02) (415, -3.39968463436952504253e+02) (416, 8.06455263268031359303e+01) (417, 6.16995052304829627587e+01) (418, -6.10103284089488084874e+01) (419, -5.50313342566954815993e+02) (420, -5.32325736011876756493e+02) (421, 3.23057979802490322641e+01) (422, 5.19791827827806187656e+01) (423, -8.71333308385551852382e+00) (424, -9.67623651064861576288e+01) (425, -5.80252152547079276701e+02) (426, -1.50000000000000000000e+03) (427, 1.29873501480158836330e+02) (428, -4.15429059758087419141e+02) (429, -2.62658120695193872507e+02) (430, -1.50000000000000000000e+03) (431, 6.47739568230675445193e+02) (432, -8.21286602781340775437e+02) (433, -1.31606363642337078090e+03) (434, 8.49805608208165637052e+01) (435, 5.82478167344442795184e+02) (436, -9.97159698936709020245e+01) (437, -1.84348278456957160643e+02) (438, -1.21273975070191667669e+02) (439, -1.20526554058141050518e+03) (440, 1.79025746572048376493e+02) (441, -1.98076082188903797032e+02) (442, -5.76105575098446109905e+01) (443, 4.91738831937926022420e+02) (444, 2.38813090360644423527e+02) (445, 2.20210864330505643238e+02) (446, 2.72349580501937055033e+02) (447, -1.30344684636168288705e+01) (448, -1.50000000000000000000e+03) (449, -1.50000000000000000000e+03) (450, -1.50000000000000000000e+03) (451, -1.30057600674639957106e+03) (452, 3.35040308574581217727e+02) (453, 4.03562623047260331077e+02) (454, 4.67986093317224458588e+01) (455, -1.97333462986985608723e+02) (456, 5.05504829442256777838e+02) (457, 3.46400588319025217743e+01) (458, -4.58886983598955850994e+01) (459, -1.26871624441531864136e+02) (460, -9.40519407580866641183e+02) (461, -1.03631668333194127740e+02) (462, 2.13044971162210345028e+02) (463, 1.50000000000000000000e+03) (464, -1.08503714221658970018e+03) (465, -2.31995226866453720049e+02) (466, -1.79573324590345428931e+01) (467, 5.14202943637284192846e+02) (468, -1.09075941221907601175e+03) (469, 1.11000961723552632066e+03) (470, -1.93041673187626713570e+02) (471, 7.11661606184206220860e+02) (472, 1.70932691140013531594e+02) (473, 1.00578220818550732929e+03) (474, -4.84894337349422421823e+00) (475, -1.90292057921863971615e+02) (476, 9.73313469233681161086e+01) (477, -3.77632014166746046158e+02) (478, -7.32312858854980390788e+02) (479, 2.76893619012412557367e+02) (480, -1.50000000000000000000e+03) (481, -3.54915212176316030579e+00) (482, -1.50000000000000000000e+03) (483, -6.29885641558279232299e+01) (484, 3.44266650834941458470e+02) (485, -3.33182046920163429604e+02) (486, 1.00447711405779568850e+03) (487, -1.08838687440244854088e+02) (488, -1.50000000000000000000e+03) (489, -1.42639742482056112749e+03) (490, 3.65716813183970117507e+01) (491, 3.13073195699059056096e+02) (492, 1.14700387855365079304e+02) (493, -1.61023610472721799169e+02) (494, 1.48891248940404125278e+02) (495, -9.42507834837033215081e+02) (496, -1.50000000000000000000e+03) (497, 2.07542560681317553417e+02) (498, -1.26531561730877246674e+01) (499, 1.19802401983731996893e+02) (500, -4.60043139239659524264e+02) (501, -6.39032081608999220634e+01) (502, 4.14490386330502815326e+02) (503, 3.64563437867803543213e+02) (504, -4.53808100730670503253e+02) (505, 1.46394190017527364489e+02) (506, 1.09809010675796244527e+02) (507, 5.19850227717692064289e+02) (508, -1.43480839798496297988e+01) (509, -2.12187323465929544852e+01) (510, 6.78840061155334979048e+02) (511, 8.50778210531716354126e+02) (512, 1.33194676562064501013e+02) (513, -1.50000000000000000000e+03) (514, 2.62492171990831764106e+02) (515, -4.94200924609625985795e+02) (516, 7.04874963817097864194e+02) (517, -4.76052973970077061949e+02) (518, -5.09183868822860063119e+02) (519, -1.50000000000000000000e+03) (520, 5.47587573475855364791e+01) (521, -6.11065798767423984827e+02) (522, 1.75477948525529228618e+02) (523, -2.96052136180827005774e+02) (524, -3.33053408061359448311e+02) (525, -1.50000000000000000000e+03) (526, -1.50000000000000000000e+03) (527, -9.08725607004385665277e+02) (528, 2.30976750702637261270e+01) (529, 4.68084077035532288846e+02) (530, -5.78864820440431003590e+02) (531, 7.88516204912553348549e+02) (532, -3.87044648081646926130e+02) (533, 5.67160529921288230071e+02) (534, 1.94635804600627835725e+02) (535, 2.53448413453667207307e+01) (536, 2.85702263344115863219e+02) (537, 4.17543270294660757713e+01) (538, -1.10613684090120543146e+02) (539, -1.50000000000000000000e+03) (540, -9.59633170610515549015e+02) (541, -1.37603524742082436205e+03) (542, 1.20526554058141050518e+03) (543, -3.20373426239987168174e+02) (544, -1.50000000000000000000e+03) (545, 4.12799531758302507001e+00) (546, -2.06752745825559003379e+02) (547, -2.92409379029190233723e+02) (548, 7.39784091130998575636e+01) (549, -1.95079693493912813551e+01) (550, -3.64684738047785685922e+02) (551, -3.96763810129532487281e+02) (552, -9.30423417402528656339e+01) (553, -5.88484062981169344653e+01) (554, 4.80392389579408472855e+02) (555, 1.17725523756134998621e+03) (556, 3.91430388274832296247e+02) (557, -2.23983493027836928491e+01) (558, -1.50000000000000000000e+03) (559, -2.54482572076529436345e+01) (560, -1.50000000000000000000e+03) (561, 1.50000000000000000000e+03) (562, -1.23812184218606077479e+02) (563, -2.83444734722219386924e+01) (564, -4.85063532092351010760e+02) (565, -7.49108958342624077886e+02) (566, 2.58648351397282681319e+02) (567, -2.84963356171369127878e+02) (568, -5.11650159756053483306e+02) (569, 6.63742024321292774403e+02) (570, 1.73038524415597862571e+02) (571, -1.50000000000000000000e+03) (572, -1.50000000000000000000e+03) (573, 3.08780638080865969641e+02) (574, -2.71172429141297641308e+02) (575, -9.37492816506743196214e+01) (576, -8.78401898002356801953e+02) (577, -1.35781002871314558433e+03) (578, -2.17991384770024950512e+02) (579, 3.53502967186961541302e+02) (580, -4.52997842230419735188e+02) (581, 6.59305546037817009619e+01) (582, -8.79672567004350526076e+02) (583, 1.50000000000000000000e+03) (584, 9.61167692785553384738e+01) (585, -5.12269700394112192043e+02) (586, -7.96668470410187865127e+02) (587, -2.07231415820975968245e+01) (588, -9.88828223029178275283e+02) (589, -3.00585142169569508042e+02) (590, -2.36623949770621948119e+02) (591, -3.81392873181489221679e+02) (592, 1.35120849228087399752e+03) (593, -1.50000000000000000000e+03) (594, -1.52101847469741670693e+02) (595, -4.50461761817160095234e+02) (596, 1.20270933959083762943e+02) (597, 2.15058278429895125328e+02) (598, -3.92197342221024527475e+01) (599, -1.50000000000000000000e+03) (600, 7.13059532123648409652e+02) (601, 1.53543953551114270795e+02) (602, 6.28899144823326082587e+02) (603, 3.49489007808206331163e+00) (604, 9.29089352546743270977e+02) (605, -3.49168025022153813097e+02) (606, -1.13699039647669565056e+02) (607, 6.72278473449472585344e+02) (608, 4.59945393435473249610e+02) (609, -1.47839872840951716171e+03) (610, 3.03529993239223813362e+02) (611, 1.99058069805199181701e+02) (612, -8.61951251039341315163e+01) (613, -1.43817856729127726112e+02) (614, 5.59128664064664008038e+02) (615, -1.05664916498586123339e+02) (616, 1.06864590066570394811e+03) (617, -2.47076742793928872288e+02) (618, 3.26928603322702088008e+02) (619, 4.68370256806566374053e+01) (620, -2.30606706050775365213e+01) (621, -1.74508579736491356016e+02) (622, -2.78667544797015352742e+02) (623, 3.31744266866717225639e+02) (624, -1.74984650286949516840e+02) (625, -2.09261600416999158369e+02) (626, -1.31151085809772348512e+03) (627, -4.49227534367211490007e+02) (628, -8.93822839077192838886e+02) (629, -6.81727801922536684742e+01) (630, -8.68728544925354668749e+01) (631, 6.91800349750939517435e+02) (632, -4.03397992699801932304e+02) (633, 3.00277007655165050437e+02) (634, 1.57359741995116451108e+02) (635, -1.08507332045282782929e+03) (636, -1.48780856847184054459e+02) (637, -5.25617464662504744410e+02) (638, 5.24546795722779847893e+02) (639, 2.35792226015616790846e+02) (640, -1.50000000000000000000e+03) (641, 1.05477276430760593939e+03) (642, -4.65248513564716681401e+00) (643, 1.50000000000000000000e+03) (644, -2.08854585532908231471e+02) (645, 1.72421434265920254347e+02) (646, -1.48266114417207745646e+03) (647, -1.11142753190838084265e+03) (648, -3.64254162785383300616e+02) (649, 3.93752530866792085362e+02) (650, -8.77382012216715907016e+02) (651, -7.36280764064356731069e+02) (652, -8.41942795238601320307e+02) (653, 8.23779591049872692565e+01) (654, 1.34231211081545495745e+02) (655, -4.38333043852335435986e+02) (656, -2.10935915561268984675e+02) (657, 5.85983308654290794948e+02) (658, -9.97010170465788633010e+02) (659, 3.37842244590372899893e+02) (660, -6.89179374113793301149e+02) (661, -9.05488013461722829334e+01) (662, -1.04393635310873810340e+03) (663, 2.49358346660736089007e+02) (664, 5.14112701939699068276e+00) (665, 5.29271775794603854592e+02) (666, 7.59703864820419170201e+01) (667, -1.74842491158297761444e+01) (668, -1.03300261864559638525e+03) (669, -4.86561640322869834563e+02) (670, -1.69846183072265603187e+02) (671, 4.28042238209847823782e+02) (672, -1.29915501507686798277e+02) (673, 1.50000000000000000000e+03) (674, -3.30014932719588159671e+02) (675, 1.46754274109432657269e+02) (676, 6.11193910247705275651e+02) (677, 3.76502017037244769426e+01) (678, -5.71527408340532815600e+02) (679, 2.65258188088450985731e+01) (680, -4.97251643444443743647e+02) (681, -6.28897663789674226109e+01) (682, 2.56912620998616944235e+02) (683, 4.06793700780360609315e+02) (684, 5.50933630734916519600e+01) (685, 2.82276916387372807549e+02) (686, -8.98937619750195011648e+01) (687, -1.13337707433952755309e+03) (688, 1.38791317408505221920e+02) (689, 1.45981905500229402151e+02) (690, 8.19685483224180075013e+02) (691, 3.69946373070132665362e+02) (692, -1.20644789227820822930e+02) (693, -2.75841691160629409296e+02) (694, 2.31057099688203919641e+02) (695, -4.25224208804794614025e+02) (696, -1.24332206853756275677e+02) (697, -1.47624193519652607165e+02) (698, -7.06687832627884176873e+02) (699, -5.67468593062074432964e+02) (700, -5.90059793009454551793e+02) (701, -3.46981129135291382681e+02) (702, 3.09438693221354640173e+02) (703, 1.50000000000000000000e+03) (704, 1.36282390013198664747e+02) (705, -1.47949065928816207816e+03) (706, -2.49072974159559805685e+02) (707, 1.68929857696770937991e+02) (708, 4.46398071896130318237e+02) (709, 1.04877497639612300873e+02) (710, -3.42485965799286134370e+02) (711, -1.50000000000000000000e+03) (712, 1.98589418756940062849e+02) (713, -1.28333379980012011856e+02) (714, 5.75380527236100306254e+02) (715, 8.60924386061864765907e+02) (716, 7.61271355387808768000e+01) (717, -6.03560999066785939249e+02) (718, 9.20735325832310309124e+02) (719, 3.52955822785516033946e+02) (720, -8.35836498511466601258e+01) (721, -6.81871079126419090244e+02) (722, -2.53414780598841105075e+02) (723, 5.02039872993957260405e+02) (724, 4.43953906568928744036e+02) (725, -9.23462360769903369828e+01) (726, 8.13463692654283576644e+00) (727, 4.96856530667708753413e+01) (728, -1.05311508219228653616e+03) (729, -2.93202309581510121461e+02) (730, 1.50000000000000000000e+03) (731, -3.03832956794654876376e+02) (732, -4.31327433987459130549e+02) (733, -1.50000000000000000000e+03) (734, -7.88884781294940125917e+02) (735, -1.50000000000000000000e+03) (736, 4.44157197761959935178e+02) (737, -1.50000000000000000000e+03) (738, -1.20145133392650996029e+03) (739, 4.52638545127239126487e+02) (740, 4.73259513626043940349e+02) (741, 5.32945167436356896928e+01) (742, 6.13745944439829600014e+02) (743, -1.21953125771489089857e+03) (744, 1.72122981519730657851e+01) (745, -8.32307691136545813038e+00) (746, 1.20992478352666896768e+01) (747, 1.49292306671370647564e+03) (748, -1.09196019367306757886e+03) (749, -6.84863619316879976395e+02) (750, 8.83961133820975533126e+02) (751, -4.90561766924108937360e+01) (752, 4.78944512771655524830e+02) (753, -3.99492437769849857432e+02) (754, -4.23959145276593005747e+02) (755, 1.88152716167025602090e+02) (756, -5.43487722079291444288e+01) (757, -1.08016048162479506800e+02) (758, -1.33805744546894607083e+03) (759, 3.69929345251172605913e+02) (760, 2.83334302837785287466e+02) (761, 6.04979466803910099770e+02) (762, 2.21302322274431787719e+02) (763, 3.69848727867534819325e+02) (764, 2.21334505986736758132e+02) (765, 